strain,pca1,pca2,pca3,pca4,pca5,pca6,pca7,pca8,pca9,pca10
257eb400,-6.043306570264209,3.1216206086593177,0.7128023865632905,-1.6386769383403577,-1.8029415743494575,-1.5627568510197976,3.52016503948736,-1.1919684149840766,0.6901720757007552,-1.378152515034477
3efb165d,-6.032127428381632,3.102009017778784,0.7013416957778613,-1.6160148988434144,-1.7809037924619266,-1.5365827390177622,3.468913137951324,-1.1481482590068188,0.6671662895563096,-1.3333246050585823
6b141244,-6.032231754705023,3.1012287966547443,0.7044365315521695,-1.6155091961953894,-1.785390134743971,-1.538905840556175,3.474729129816813,-1.1552661056039106,0.6694832445028784,-1.338589567702731
28ecc71f,-6.03227548638061,3.1043347955374805,0.7028412605312111,-1.6147010232974786,-1.7835128711008785,-1.536650206978313,3.4746470967352048,-1.1538840595380395,0.6680009019492473,-1.342842195701501
fe3066d,-6.032498168288142,3.1043142994906856,0.7005267533400086,-1.617265918291723,-1.784446385189499,-1.5385866071363319,3.4745775166431376,-1.1511644475384781,0.6669885731729552,-1.3346758639677272
40f54507,-6.033284025351368,3.1035993308407765,0.7034935456197636,-1.6173802019383092,-1.785998931656009,-1.5422105275684752,3.474207477544568,-1.1500715670485833,0.666978218452016,-1.3334303934800364
12312fc0,-6.0326883202927695,3.1012196863592516,0.7009862530195495,-1.6161856029977877,-1.781800577367195,-1.542135703749956,3.477117878455566,-1.148477513550689,0.6646103630981693,-1.3402122819224846
117d9c06,-6.032171315633286,3.1030702239731878,0.7021668384050409,-1.617586532887142,-1.7814333749510147,-1.5392452593493862,3.476657383243681,-1.148849787106253,0.6728149964677036,-1.3390676214188522
20632973,-5.669025943094815,2.7051193152065895,0.751753005506327,-1.9796474350040412,-2.2601724885889745,-1.2045621995200797,3.4412005205223504,-1.010633110027541,0.7797411967944979,-1.4225287297509241
283d342c,-6.0344468532067665,3.0975509267202344,0.6987214554131721,-1.6118689701104338,-1.7832576954903179,-1.5445932531680933,3.4948856908212202,-1.136799177867775,0.6541796055717306,-1.3406723441810662
57e5ce31,-6.032938125871026,3.1027015220299607,0.7014748563457671,-1.6165401600862122,-1.782065155851944,-1.538537250486068,3.4752044294122966,-1.1524773927974539,0.6697778852367999,-1.3367700001646023
34e65483,-6.023907928507558,3.106034947516529,0.7690480899761131,-1.5664250684471208,-1.8070896245086425,-1.5321306034728195,3.472962928302271,-1.1858330854637769,0.6357186767535004,-1.3310442729843532
5cf4123,-6.0326763746245105,3.101740521188674,0.7013924575074655,-1.6169119193492543,-1.783095743921204,-1.538565898717948,3.4763136415665534,-1.152768875812511,0.670853322946471,-1.3376888773133284
2f31bb47,-6.032479525171507,3.10417248719705,0.7004130298462015,-1.6168512183572723,-1.7837128083209022,-1.5377407368082903,3.472958297059624,-1.1512086829115695,0.6673693375471292,-1.3393355834657297
5213ce49,-6.032791799038507,3.1015477133360476,0.699376715580729,-1.6157589589890695,-1.7846640188216738,-1.538211618294616,3.4772647021973904,-1.1546295701260476,0.666395465458125,-1.337334089061876
51da3036,-6.032784072592314,3.1023096097946854,0.7016785177649625,-1.617483897946675,-1.7820716312724778,-1.5392403252550932,3.4720954760465212,-1.1526824768660329,0.6713206993553841,-1.3429747469073803
b4a6f85,-6.032906435228712,3.103753220397537,0.7002796400980034,-1.6170511514491965,-1.7848133532618955,-1.5388861684058475,3.469950301044654,-1.1526437476019928,0.6689324751422905,-1.339473064507754
2c339b8b,-6.032640799886801,3.102522829560223,0.7014742708409948,-1.6165755747353243,-1.7824075992267334,-1.539090890194512,3.4772391576630755,-1.1494961271753914,0.6675202052163145,-1.3391260687259954
49ebc631,-6.032993673229944,3.102602265127141,0.7017447967157269,-1.6179047630731107,-1.7847259016644554,-1.540819644025444,3.475860846166649,-1.1528955735728548,0.670814178419919,-1.337315678075577
2fb4111b,-6.032428655019824,3.1030765697025964,0.7004080763107429,-1.6168358480793172,-1.7831632273415277,-1.5358720565322677,3.473916598264993,-1.1553903573611866,0.6695508924417345,-1.3423412789177418
3617e366,-6.031465475805362,3.1040129431744687,0.7005149814068728,-1.6158299712014617,-1.7827178473780092,-1.5375020155802717,3.4781408637569697,-1.1486478995880909,0.6643684874508157,-1.338655716480532
2a900e53,-6.032084394173295,3.103586277542408,0.7001191783200909,-1.6164250726805776,-1.783855270032243,-1.5380215310755305,3.4762089071253293,-1.1530365530201518,0.6663779413193808,-1.3394485757294836
7232956e,-6.032538406604671,3.1021920162135004,0.7014068938153363,-1.6180054464704867,-1.7816166291879623,-1.5378625718686445,3.4768403743598153,-1.1538334976076472,0.6695025968959241,-1.3360544315180825
885b4b9,-6.019914504365123,3.103556700421833,0.7936617784353067,-1.562439674156116,-1.8037542506673219,-1.531272359603605,3.4768707309683893,-1.2029358344271226,0.5936779013477456,-1.3092687301033998
15901667,-6.032251208465794,3.1027325515804485,0.7020633566529633,-1.618747007212526,-1.7806785276911683,-1.5394472704313034,3.4764249182974534,-1.1525142497728629,0.6663680030941335,-1.3391150699400327
2e605d03,-6.032209140151193,3.1020227630512367,0.6997022151241213,-1.615039222382104,-1.7819828780789897,-1.5402993263539193,3.476659192038134,-1.1513345092674243,0.6722584165269994,-1.3393263525715717
7ae52e19,-6.032586092931277,3.1018384007612396,0.7014314772240824,-1.6170656143159985,-1.7837164216277588,-1.5399384923893733,3.475021354808402,-1.1531503790096014,0.6713478466729966,-1.3388883462378707
248d16db,-6.033121210988993,3.1020072006461,0.7009778477017199,-1.6153986677037462,-1.7818361726573972,-1.5401515810753144,3.475519361151675,-1.150683530261938,0.6690866737478429,-1.3385188734101547
4dc2057e,-6.031171081735568,3.0954731338258132,0.6984938924143499,-1.6203043909332633,-1.790207155210115,-1.5405707011823342,3.4681728448842644,-1.1667151743086877,0.6785459284313026,-1.3409183705274135
6047daa3,-6.032235623620792,3.102776584075194,0.6997727696683914,-1.6155633187990945,-1.7836538420403274,-1.5400751087199869,3.476427154042873,-1.1509264508210388,0.6663484517442324,-1.3396395649384885
4b153584,-6.032813484408866,3.1018039793747585,0.7009577821392305,-1.616138478478878,-1.7812584439384307,-1.5392351855318802,3.4787039547764937,-1.1489635184404972,0.6654478884071863,-1.337614788723966
4b6442af,-6.03297962122313,3.1030519371210334,0.7008387965468033,-1.6200421185303682,-1.7875331253492115,-1.5297118124066225,3.4867049766924234,-1.1463708832177915,0.6657680673419811,-1.3396879573838223
3a67631,-6.032585915827636,3.101841350250065,0.7014344038456536,-1.6170611129835155,-1.7836931771202789,-1.5399146243133022,3.4749762828351525,-1.153014890427964,0.6712183194866942,-1.338889021340298
f69b029,-6.032251171843625,3.1027325828211736,0.7020641568602934,-1.6187511533072056,-1.7806749382466607,-1.539449240760559,3.476428723079218,-1.152514634690642,0.666347306772267,-1.3391153898557082
3d448b2f,-6.0321268109927395,3.104542073004401,0.7009713972349548,-1.6176912980585878,-1.7832544369624004,-1.5392871733478313,3.4748136520147086,-1.1486686512439201,0.6703897083494386,-1.3348872717902298
4a840024,-6.0329349590483305,3.101556606284911,0.7007173887308379,-1.6147744236358346,-1.7816773533300785,-1.5407756274167932,3.4799256853079457,-1.1433783114513514,0.6616527684356055,-1.3399812496242125
6234f4b9,-6.031787690734864,3.1038812981524493,0.6994081075835313,-1.6156158417008242,-1.7811805251662252,-1.5385545938032916,3.478433091073133,-1.1478308871942857,0.6747450780820391,-1.336199833327888
214eea38,-6.032130555038294,3.1037268552245365,0.7003572479835549,-1.6174533346126765,-1.780572231614097,-1.5374149148205845,3.475553632378284,-1.1560546360595625,0.664586618667899,-1.345055890386025
5b8e43b,-6.031583638529594,3.1044425955226465,0.7014845159953801,-1.6183965294913203,-1.7791591339340505,-1.5433300161530434,3.478246143939958,-1.1380023289674053,0.6823468389031678,-1.3316514999945914
20fef060,-6.0322512084657935,3.1027325515804485,0.7020633566529635,-1.6187470072125272,-1.7806785276911687,-1.5394472704313003,3.4764249182974534,-1.1525142497728638,0.6663680030941288,-1.3391150699400207
737c3c3e,-6.031354559313637,3.1031695084898803,0.7001971603219233,-1.617578417338413,-1.7803254398858943,-1.5418497114522673,3.476877839454129,-1.1481211561257976,0.6686947439268625,-1.3409619465699354
26520bb0,-6.03309728734509,3.1028217041436927,0.7015516244982783,-1.6169738989810505,-1.7834680549184245,-1.5410252355920924,3.4746656066381387,-1.1485628883173034,0.6666408148101582,-1.336458399107635
3a09065,-6.032070468172155,3.102684190489119,0.7003595806206674,-1.6177849986435309,-1.7850501476362748,-1.5340916036937569,3.478254061750002,-1.1496938700539,0.6670333098380149,-1.3380431255186889
35a1286f,-6.033333835151316,3.1047726811659455,0.7052333830683172,-1.6160998983261488,-1.7840063676303972,-1.5377633430984188,3.471902662842226,-1.151557526716841,0.6666521791392896,-1.337693496928968
3248b173,-6.032123926244277,3.1033420764436914,0.7011388124299363,-1.6170368102853243,-1.7825142782048669,-1.538761988609617,3.4765727804358204,-1.1488332811182425,0.6740082656048636,-1.3378168803737729
5a45f4d6,-5.771405992662589,2.6913377220881975,0.5801241252524789,-1.372591989026284,-1.627713745156195,-1.5584643285267759,3.911608027586992,-1.0938809550404252,0.6088872022564277,-0.6656133630821608
7bbeebc,-5.770968999997754,2.6916449264280433,0.580730259244994,-1.372257767714141,-1.631838082072472,-1.5609669896059486,3.918226696447588,-1.1010145110352094,0.6112614020229072,-0.6682034539715958
3fdf4a81,-6.0326547672921205,3.1007750461229504,0.698965153246028,-1.6160473374580178,-1.7881947861712941,-1.5486794166305269,3.4773169432905804,-1.1554663962855498,0.6786130780459124,-1.346630230944672
13d86246,-6.033171532303937,3.1009308991953723,0.6993756403748557,-1.618271191768954,-1.7904219155815413,-1.5527376487385014,3.482458856410992,-1.160201519407065,0.6807081136114413,-1.3508532333375138
304823dc,-5.780997676769361,3.4344451972385337,0.7182851061284724,-1.0651433899564622,-1.9382068617494705,-1.4483015552336458,3.4812308595341617,-0.6541758510370667,1.403539228342276,-1.0937138805160422
6dcd94aa,-5.781516686363669,3.434514354228358,0.7182353701040205,-1.0651225141938736,-1.9404048158974765,-1.452157812946239,3.4883249681259527,-0.6554651930876175,1.4073524138337388,-1.0989081984677587
767405a7,-6.032865180800727,3.1031556681796126,0.7013751962121211,-1.618890376088757,-1.785526341078588,-1.5346208177292657,3.4834407503866567,-1.1496611913861676,0.6680464433198884,-1.3406811512533965
239f6c1,-6.043444936615979,3.123244913791074,0.7136136331787256,-1.6422238914453795,-1.801902378255295,-1.5657895628552967,3.524632834287834,-1.1937533972345007,0.6912323053981146,-1.3843356424322417
6338e772,-6.043562822285601,3.1233534641507896,0.716638692668046,-1.638298845156261,-1.8051968512781364,-1.5643754292872587,3.524510884904733,-1.1944104408343557,0.6917867803971799,-1.3837845083291322
67ae404a,-6.043755978474095,3.121008649377033,0.7129699017638652,-1.6404408143484024,-1.8065595075021363,-1.5638007924926263,3.5275315095021944,-1.1947936137532509,0.6935091330769717,-1.3842303465862944
576c71ea,-6.03283578851942,3.1028311754849685,0.7015608184642081,-1.6167394462672424,-1.7824327074073913,-1.538897349683161,3.4755696143182497,-1.148964500545691,0.6672373024025965,-1.3392555026064326
705591c6,-6.032542947517465,3.1028425212990562,0.7017218169412007,-1.6171628290931908,-1.7826448211130732,-1.5385524952947751,3.4764069000182904,-1.15135513510773,0.6692758397518063,-1.3388836205821286
33858ff,-6.032564424516288,3.1023418797964473,0.7015780588915732,-1.6171117670557698,-1.7831685728132947,-1.5392329268938014,3.4756875380715653,-1.1521827624053198,0.6702453995691025,-1.3388805043748357
7f304ba4,-5.699507324275456,2.70538704170721,0.6635941165724295,-1.6650914467172653,-2.025390962534478,-1.8007851996648225,3.4763253351666137,-0.8487108642137408,0.4020884430735082,-1.4352830083809711
3a23fb3c,-6.031702223495076,3.103493122828724,0.7008606425297358,-1.6151221902173007,-1.7852073266468034,-1.5384232864067853,3.4754671048135335,-1.1542081488535398,0.6673769434546468,-1.3388825171315584
1a611fa0,-6.031127562452253,3.102310216586451,0.704528145197646,-1.624727509431135,-1.775833628558614,-1.5425695476766255,3.4725421561942706,-1.1433061547298626,0.6702384560852048,-1.3428714294348194
452f96ed,-6.032102683965158,3.1034703649875905,0.7006108036562874,-1.6167252748511793,-1.7831788036590415,-1.538400897541455,3.4764200038368696,-1.1504557355655731,0.6712782743714275,-1.338041909354757
5a147ddd,-6.032644683808171,3.104354945695492,0.7003083081731796,-1.616757627505816,-1.783853819226443,-1.537829678753439,3.474932161545015,-1.1522431380062637,0.6658753842344418,-1.3360183926603302
520df321,-6.034517635892724,3.098449340790261,0.6986614156328271,-1.608547550650641,-1.7804036564623469,-1.5363639319533458,3.494200359504835,-1.138061221136902,0.6591968895635857,-1.3272924781297843
7dd02ef8,-6.032542947517465,3.1028425212990562,0.7017218169412007,-1.6171628290931908,-1.7826448211130732,-1.5385524952947751,3.47640690001829,-1.1513551351077296,0.6692758397518066,-1.3388836205821277
6a142f57,-6.0315771987086535,3.1039993202148572,0.7049389153559809,-1.619673025104015,-1.780028587287482,-1.5398915070861177,3.4759960789305606,-1.1444129642911536,0.6701086830612055,-1.3376290159345579
276dbc6,-6.032316255756671,3.103198864500475,0.7009810404439303,-1.61684255420107,-1.7831521243352915,-1.5383398561017865,3.4763459594264483,-1.1518025683895616,0.6685987250931925,-1.3389691345684478
2582353c,-6.0322921174291775,3.1027909794925628,0.7009723889683497,-1.6172868997059917,-1.7837987361995102,-1.5375964341176056,3.4759473806578787,-1.1533078870244513,0.6685475915354718,-1.338897900755186
25a4820,-6.032750728553192,3.103259441052298,0.7019120320815327,-1.61773740600634,-1.7835166125976414,-1.5395392684320235,3.480165935517396,-1.1529653002971723,0.6703356251986096,-1.3416805423084093
1c39dae7,-6.032750728553192,3.103259441052298,0.7019120320815327,-1.61773740600634,-1.7835166125976414,-1.5395392684320235,3.480165935517396,-1.1529653002971723,0.6703356251986096,-1.3416805423084093
50b213a0,-6.03265283657553,3.102960631735604,0.7011632807286431,-1.617057863347957,-1.7822721763813179,-1.5350005758866878,3.476643604077471,-1.1512993334571855,0.6708121487061961,-1.3441995162343265
307d8c35,-6.0332377616917565,3.1043654761803285,0.6999686160093035,-1.6158405870414685,-1.783082864101755,-1.5379308869656145,3.4714516397135298,-1.1479503300774434,0.6622414738529608,-1.3419649661138195
5d4e312f,-6.032729265927758,3.1031955447371136,0.7018130459204757,-1.6171312076650495,-1.7827471024763735,-1.538301855234923,3.4747525100075234,-1.1501382956189665,0.6701675012962423,-1.338511369797123
674f1f8f,-6.032069892625379,3.1026593073383326,0.7003765202748166,-1.6179146185714526,-1.785256900884981,-1.5335537466015694,3.478628669104635,-1.1480662948146783,0.6664066624063454,-1.3396959389626997
3cb57e2,-6.032703588515342,3.102850695164965,0.7010015980930843,-1.6170944505791551,-1.7830774659340696,-1.5424723533785039,3.4771818802309578,-1.1483230766476142,0.6694678478796033,-1.3375887343103918
432081aa,-6.032200824764316,3.1019027280230933,0.7019921623179824,-1.6185870102616717,-1.782257407839262,-1.5394989671858443,3.4755412618829555,-1.152407609883908,0.6712834129971802,-1.3385451179520642
2c4e9e21,-6.032593329640656,3.102141124308416,0.7013836645063467,-1.616742454714783,-1.7811672369493334,-1.5401424142021767,3.4782513956748553,-1.1476901493373048,0.663721441518508,-1.3395910990718094
491f3642,-6.0324096473613205,3.101851523499354,0.6985725896652542,-1.6153426374953854,-1.7830294902003856,-1.5396244396278436,3.4749346966427725,-1.155575289071775,0.6665870007329039,-1.337576499625038
602453b,-6.03275968921414,3.102503371065581,0.7014651478906438,-1.6165865655953584,-1.7822946202179397,-1.5388284582109195,3.47557793000628,-1.1524036321772197,0.6700079517489839,-1.3419041154721854
63568448,-6.032958539595072,3.1036767793699034,0.7021030001364202,-1.6183144305665034,-1.7843893946620106,-1.540528955433385,3.4839477644432493,-1.1545809073847164,0.6714173029411205,-1.3445217912136667
687565a5,-6.033186330515894,3.1048171914454445,0.7033011953630354,-1.6211831152606624,-1.7845298785271742,-1.5418123409540234,3.4907171100223184,-1.1549142105439127,0.6772589046513227,-1.3523100759917097
4bf79a1a,-6.033745998645182,3.1031106569236377,0.7006919685038014,-1.6169361310994659,-1.7857939607273725,-1.541668145649388,3.478560375583982,-1.1511798441555512,0.6691657398441484,-1.3469999348186021
4850bc45,-6.033526372111889,3.1047385759813393,0.7010986301915464,-1.616421055092034,-1.7890612342505479,-1.5430502617116393,3.4859334204973913,-1.1559427981325188,0.6691181672276036,-1.3525444488700713
5ca1ed47,-6.033782619316745,3.105270971728649,0.7027815472507734,-1.6202386075607014,-1.786975685389742,-1.5430503163012035,3.4897290698460073,-1.1564211347131739,0.672502615458088,-1.3473597666822248
409a7cf4,-6.034714878404956,3.106929326656914,0.7036148494664733,-1.6225239791651118,-1.7871471912383718,-1.5469709842555348,3.505333221964497,-1.161896647054197,0.6761054848175873,-1.3658058335970598
45463168,-6.034491762806131,3.1085816271619415,0.7039290560803629,-1.6219563899321705,-1.790546741444857,-1.5482888978444813,3.512727252283435,-1.167198077632205,0.6751653016659515,-1.3716926392960436
17fc6057,-5.869336693593436,3.3498845006455524,0.2289203367524004,-1.4212025232045788,-2.0706449900676436,-1.4373401564879644,3.4764917974702785,-1.2209982268460469,0.6633650230764521,-1.2829614700446716
8715d3d,-5.868720817853205,3.3528443430037482,0.22735629269331253,-1.4230709984247105,-2.072273897113857,-1.4381993650706906,3.482042500088555,-1.218767445943226,0.666798539739968,-1.290041381748487
16aa8dc9,-5.869519385578552,3.3505476820580715,0.22917751985311924,-1.4226809504172204,-2.0729421148964025,-1.4386961706920516,3.4837425167431277,-1.2242914387686215,0.6682883551956695,-1.2876661967576464
60598e71,-6.032257383848015,3.102490304867099,0.7015513617797795,-1.6219799297272093,-1.7883237110412802,-1.5373803999029274,3.48093430975282,-1.1504249388607641,0.6877837690864235,-1.3374539444686988
1b619fd9,-6.198768545266473,3.3858857486226723,0.7924508543801261,-1.8177480277523108,-1.9321095071681456,-1.520109427452182,2.296701083262771,-0.5870663391487336,0.32075652737791,-0.6555973014367349
bc668f9,-6.2005765783607805,3.3882147961574085,0.7948204327389548,-1.8243200749247246,-1.939691896840044,-1.5250959389495597,2.3154070000016005,-0.5897410565816027,0.3225962334083362,-0.6725997311883282
b085b65,-6.1999598541469405,3.3848997723172927,0.7916589727161991,-1.816448850090444,-1.932896270828077,-1.5237158996299864,2.300317747228779,-0.5920479297374016,0.3249531212993868,-0.6631539134332285
581eafcc,-6.199691664156397,3.3879866967303798,0.7910788424583254,-1.8176695659697069,-1.9347560742448855,-1.522400597120593,2.303227839225277,-0.5874511721982387,0.3163341377442419,-0.6617533839609143
17fbf3a9,-6.198145102572656,3.387672965867156,0.7896649075499034,-1.819286293532013,-1.9358705785743973,-1.5205569556118173,2.3008293656897765,-0.5943889958991954,0.31699001816884376,-0.6568350213004789
7c0683c1,-6.199211921128308,3.3778173262444975,0.787675389912306,-1.8167567817095869,-1.941573863968347,-1.5275406749185265,2.294821880534311,-0.6017143888591487,0.3409488416993792,-0.6544874107949314
2a7fc80b,-6.199058007138744,3.3862906368365224,0.7920905380194365,-1.8196462475488995,-1.9322720742599764,-1.5226051480751874,2.2994909223425677,-0.5938239495159279,0.3212579349443511,-0.6639923146092913
30c33d63,-6.199874833347504,3.386238834609253,0.7920332716333188,-1.8166407795987283,-1.932072187550638,-1.522775384146761,2.3036497367884983,-0.5832463104231528,0.3168752264749848,-0.6578866490834197
74d2a0a5,-6.198817832653285,3.387891978653688,0.7904188271175652,-1.8171649279958382,-1.9339195491358807,-1.5199580769919636,2.302689036325063,-0.5916821965696138,0.32029877539211193,-0.6579694342690093
66948d1e,-6.199346732765771,3.386808889073729,0.7927616149270339,-1.8185829268626434,-1.9331968815642182,-1.5213275787181246,2.30226255328612,-0.5895166458541806,0.3220538255024237,-0.6580213106829146
43d19bae,-6.199503259000884,3.386894726741033,0.7928136839765045,-1.8189648758027628,-1.9344486560446037,-1.5232526268736986,2.302905552532697,-0.5862119986033957,0.3193686907894754,-0.6571661514474174
3516ffae,-6.199243299119297,3.386331495264834,0.7926748792581129,-1.8187417982743472,-1.9343053034349744,-1.523083535773318,2.301172864227884,-0.5888364708424271,0.32192816485334635,-0.6586793150640092
3d68802a,-6.198754761592962,3.385704050042627,0.7896361662914857,-1.8193555951760068,-1.9383207473166986,-1.5169648454150304,2.3026489375018784,-0.5979622202747955,0.3207807697764811,-0.6551334188129851
59d44859,-6.199455775741976,3.3866064071556212,0.7916306558389183,-1.8169280866580917,-1.932870531239546,-1.5221222971715263,2.299181863483283,-0.586121360993702,0.33080769657581915,-0.6582729409238335
5709640c,-6.199216084549128,3.385678176816899,0.7931213633821644,-1.8202727499347549,-1.9304726645621948,-1.5227335374915358,2.300968446167419,-0.5920661201609962,0.31703810454451276,-0.6641350114817702
1503bac2,-6.199477811483649,3.386665195125189,0.7926825655842779,-1.8185374358096082,-1.93214416186169,-1.522666275192912,2.3017591244710274,-0.5859488937309982,0.3192743037867976,-0.6576688636440067
5d865d41,-6.199954167367873,3.386123219403035,0.7934411420663082,-1.8147846335961841,-1.9319950324160056,-1.5205313050921234,2.3024669327034486,-0.5881579975715941,0.32541866001497033,-0.6560782558499937
76f3f876,-6.199074549363392,3.385287552083509,0.7934582211600871,-1.8226682765207172,-1.933142295801633,-1.5183661952621903,2.2994877607526383,-0.5884301195547552,0.31990330813797185,-0.6614377700446992
4a29fa1f,-6.1994707037312216,3.3849225816515784,0.7971935077582178,-1.8274418245721293,-1.9400713559893663,-1.511284769170578,2.315174188335494,-0.593649238370234,0.31787224076364795,-0.6654873126476616
325d9ad7,-6.199724205101261,3.3871846061695687,0.7933739269822921,-1.821880192349684,-1.9339485436830253,-1.5219596588424575,2.305411452550749,-0.595570279848295,0.3230622155567974,-0.6648157313019378
1697ce25,-6.039317315153967,3.1144023207683253,0.7054247780646301,-1.635376742216391,-1.8121880819679113,-1.5696519014467343,3.587182784239525,-1.2036763630529033,0.7028588252481242,-1.4136537377292575
6c09884a,-6.050496457036547,3.1340139116488936,0.7168854688501015,-1.658038781713412,-1.8342258638554902,-1.5958260134486353,3.6384346857756107,-1.247496519030017,0.7258646113926793,-1.4584816477050588
6ef3eb61,-6.040370309399176,3.117400131349575,0.7044084297529523,-1.635534106026316,-1.8136789543259313,-1.568730443198874,3.5898640955898986,-1.209175581362637,0.7047750615854412,-1.4275805919198727
341ce204,-6.039150663296083,3.1134105019671043,0.704637957312818,-1.6388644567565513,-1.8182844721268607,-1.5670870191409645,3.5926905914548803,-1.2146982825578887,0.7081379495892521,-1.4181800792988932
91b3f48,-6.040620173495878,3.1148932102505347,0.7015634107924723,-1.6332603350449153,-1.8128130959833086,-1.5696818316795027,3.6019260288427843,-1.2031104379207695,0.6948464471140081,-1.4069306536064692
41288c26,-6.039902300779847,3.1153641345734795,0.7057560659622697,-1.6362600600279829,-1.813302932124539,-1.5709141962848219,3.5945933231473512,-1.2079525108545845,0.7056527781216696,-1.4222041366784288
24a13d04,-6.039733329560425,3.115239154343942,0.7058071122229701,-1.6365384260800397,-1.8139596944329273,-1.5716640493762293,3.594932038807278,-1.207038331377423,0.7050812305607972,-1.419547543182623
1c69ca6e,-6.039622051705449,3.1152082674937387,0.7061041453979405,-1.6388965152541544,-1.8135675913714415,-1.5719389526825605,3.5945186017004094,-1.2087158146262897,0.7064868726168307,-1.4183150395956479
47abb902,-6.039391198099575,3.1154193231865266,0.7043526531490657,-1.637622531165671,-1.8133562863450359,-1.5675849976479437,3.5950617255200177,-1.2100507878145812,0.7019396234174541,-1.4245126236121062
7da7f5b,-6.039927014661212,3.1144369846402635,0.7052731594283845,-1.635490171455209,-1.8117761335734932,-1.5730583540561032,3.597486628623688,-1.2036918859089074,0.6999879327357766,-1.4195469645662224
68e1acde,-6.205958432038809,3.3982790516122283,0.7965339366668722,-1.83710987112524,-1.963393796674138,-1.5531785898811845,2.414970729550968,-0.6425944431947813,0.35644906306976115,-0.7359264341074174
53d2b507,-6.205302935936194,3.4015757038772643,0.7937366242142873,-1.8381739080331247,-1.963854280945317,-1.5535318964750222,2.416717566096213,-0.6459147646209066,0.35738075939919484,-0.7446707155584014
2cdbe213,-6.206428894544217,3.3981910126356647,0.7966782660866563,-1.8383132509094708,-1.9663617598401346,-1.5565317772202882,2.4187521516111876,-0.6460450689802437,0.3595154499159803,-0.738989527974902
74d64587,-6.206364200792786,3.39973398289864,0.796183876186917,-1.8397070384686172,-1.9689576152285972,-1.5571563207152324,2.4244552681128524,-0.6473887991684839,0.36136145971735584,-0.7412435117859549
755ef3f2,-6.206626200116192,3.400677476500264,0.7968111176210017,-1.8415018487137995,-1.9700849742922424,-1.559556179303062,2.4297170488387057,-0.6488846152934419,0.3628292641276004,-0.7440143090427283
392360cd,-6.2063638812923605,3.398739842248845,0.7970308415080126,-1.8390374430745704,-1.9660279444395212,-1.5538332188025898,2.420341622308195,-0.644309939917089,0.3578579825784147,-0.7390199618323303
1111c7ef,-6.201250735956189,3.387578585286662,0.7950200803951835,-1.8263424515045164,-1.9441280216623444,-1.5286684913215736,2.3169400214667615,-0.5942515856863368,0.32674684052232306,-0.6735913669166749
1b7370a0,-6.0945180514783,3.4346623923368305,1.6498127355577104,-1.2541402295231743,-2.223695651805954,-1.432548653215863,2.308573372364853,-0.8831988596311322,-0.038137694333562656,-0.5721632677065053
5a9d4279,-6.200541547905128,3.3892240760406493,0.7945779849271599,-1.825933171852084,-1.9381401242020413,-1.527673027261987,2.322941967540854,-0.5896514577746302,0.3272879479595208,-0.6666322554395303
7f4a6426,-6.040226871677524,3.1138338302737303,0.7047952121571099,-1.6355267805417895,-1.8155664631853736,-1.5783482108116798,3.6017843519020976,-1.2091898639055245,0.714329880860569,-1.4248120836862876
1e0b518b,-6.084819476604629,3.1293616882599125,0.678606060827361,-1.5600788499079947,-1.6040535567111396,-1.405430894937052,3.9401899310278288,-1.7329771740549036,0.9261711493621876,-0.3140107907640259
78d1ddb0,-6.085293916234681,3.1312074689513802,0.6823707643608022,-1.5602107241344956,-1.608037907707582,-1.4081220332629674,3.9493031538884398,-1.7384747080310465,0.9268660391112306,-0.31183982880007755
74e9e08a,-6.076386155271278,3.130630898457219,0.6841228913094884,-1.5843589319193503,-1.5702103573990502,-1.4276589818116536,3.9492799709593167,-1.7252527056756934,0.953019659875521,-0.2909326887328815
6f725d9b,-6.078455591251083,3.1321272380992773,0.6792528618151676,-1.548323294113533,-1.579659592716225,-1.3816695835162083,3.8503501024624787,-1.6902207292755398,0.9001557272520948,-0.2938658238495994
58a64c74,-6.082692000604913,3.1322672837510845,0.6792274263232997,-1.5527552898135064,-1.5897642703036332,-1.3942668240409994,3.9174912461365463,-1.6992557040422778,0.9055324377683419,-0.31306875742511114
6820e2c,-6.085011425430045,3.1278091926925478,0.6766071859585874,-1.5486093610804785,-1.5921181733320324,-1.4022773381913618,3.9434637990064383,-1.6879066229031943,0.8925457537837993,-0.3204164965475815
66ff053d,-6.084216095279431,3.1339423614917026,0.6766338509022909,-1.5539612463352166,-1.5829862110052941,-1.3907179815154433,3.932810271723411,-1.718812568365988,0.9083679775707435,-0.2756314208967295
22774cbb,-6.084726783720463,3.1317656155764775,0.6784306082774946,-1.5634081616508795,-1.6054643102962112,-1.4092943075128437,3.9493888007568105,-1.7379110237637028,0.9257848823591264,-0.31295884631959836
6eb2247a,-6.033287318154939,3.1051997016757684,0.704081953720909,-1.6179360332496424,-1.7825930265945928,-1.5405962718025559,3.4777983976274713,-1.1478146454039218,0.6725599016758675,-1.3455744097085076
564d9a7f,-6.087452144975681,3.14948617465517,0.6942973360866318,-1.503676708670878,-1.4350936007791166,-0.9813616681576164,0.30878965513736445,0.2681402576668743,-0.23182806090814317,0.7221178945551547
792dc90e,-6.088067194432554,3.1496931671179094,0.694178647958603,-1.5035706820303276,-1.4360226390148374,-0.983696824061288,0.3111145829676153,0.27261381205846263,-0.2360779610779116,0.7246669984152051
4d8634a8,-6.087871475118274,3.1503324351910487,0.694673639271424,-1.504744839911829,-1.4364965620925678,-0.982619682353703,0.309456729337267,0.2688891859869283,-0.2325609964644731,0.7251276795862369
30a35956,-6.086216246636963,3.149266661929001,0.6895781810905425,-1.5042433013583536,-1.435846936212751,-0.9831249153193458,0.31117975277394044,0.2757303550430704,-0.18586656180384947,0.7559979441217013
51cc66f5,-6.0881216114077255,3.1480878316032235,0.692524989821112,-1.5044468508050821,-1.4401771490490256,-0.9748882845998942,0.31371352096500393,0.2771399810165429,-0.23385620686446842,0.7272514185478125
7eae04fa,-6.089254003215204,3.1516555018043535,0.69449278490891,-1.5030946262581542,-1.433976767883684,-0.9801274020875209,0.30559776255464466,0.27018980111297997,-0.23027811955549798,0.7217314415755824
2560a91e,-6.0879088153418195,3.1488740116004563,0.6943483138225834,-1.5048624051878654,-1.4379786932009484,-0.9837907921813855,0.30798220518250313,0.2671496693245777,-0.23071836933747536,0.7254046244040127
764cc50e,-6.08749449436908,3.1500628599486964,0.6950606365543918,-1.5053797426632407,-1.4358685115640315,-0.9833972415782071,0.30918076693754215,0.2706658865755932,-0.22814539611444115,0.7252131784971035
3d021fa2,-6.087143417378231,3.1506588407885006,0.7007447565984473,-1.5006166423310368,-1.4385462603786883,-0.9819345860828336,0.3093410267041455,0.2662061850408444,-0.23591850105770992,0.7262038419456095
7bcb76f0,-6.087969327553248,3.1500127443093904,0.694426092653621,-1.5041575713726918,-1.4362592575010644,-0.983157848863161,0.31028529218674233,0.2707509637762621,-0.23431888467125866,0.7248941950645115
2fb56b04,-6.085531771004345,3.1465376291225513,0.692736926012537,-1.5000307059525182,-1.42746943482154,-0.9768771468911583,0.3056097226878121,0.26808792434420003,-0.2282871075344268,0.7117792617123447
6bd66fde,-6.087473475835158,3.1519889942185917,0.6920805068047725,-1.5031749171745366,-1.4335797918861755,-0.9812150017138052,0.30644013861826613,0.2690599227657416,-0.23307135059538808,0.7231434543020695
4437c188,-6.087892807447114,3.1528359272570023,0.692455608487051,-1.504242691969173,-1.434981273283095,-0.9824728279233349,0.30710213690758154,0.26981141681581966,-0.23380822370194262,0.7261575062349225
69919021,-6.088198584932805,3.149416754675611,0.6925032895395009,-1.504847813827495,-1.4326126398174075,-0.9868253806898257,0.30341463647327743,0.27065085122574656,-0.24097423007303914,0.7228385960109708
be583f3,-6.086859060216092,3.146956635189803,0.6930440183393205,-1.501666067626918,-1.429175025812576,-0.9734881049346071,0.3065269785847054,0.27059308715603914,-0.2298175827651783,0.7150722394285363
57417c33,-6.088120171618123,3.1523934526309665,0.691378905532179,-1.5038475679865386,-1.4365121374574137,-0.9829732915573085,0.311118913232279,0.2663757101137772,-0.23400989223495006,0.7233906491351217
72b570b0,-5.731420166656702,2.4835033281758996,0.4355845010568843,-0.8373045447142307,-0.6235060366481178,-0.3914683204549736,0.4510801700152707,-0.17032449883950995,-0.013019340584342625,-0.03749048970893376
188d0528,-6.084202580989437,3.146386269531933,0.6960566722012735,-1.5010917575061342,-1.4163239135703687,-0.969239913046417,0.3055709834570421,0.266503607704829,-0.22912731723918878,0.6805576185461996
17bbeab5,-5.903120136702908,2.6160575989326413,0.6275026072988383,-1.5448833666405368,-1.3936897005576236,0.3095216015041955,0.8768850109663173,0.894645236555595,-0.4124063515394627,0.24789511716346957
3f252ed4,-5.923099008869234,2.834857956439158,0.5527090120860984,-1.1478131338104152,-1.0075229418036595,-0.6489951497180783,0.4763015475773848,-0.08568069612153102,-0.09231143793779703,0.7144687825399582
538f5ae,-5.919620448543731,2.8338922631295467,0.5738801746039318,-1.1899049174755953,-1.0520786663461144,-0.7060927364796035,0.4034121441620968,0.0518864774052973,-0.13448565232669396,0.3859930110164368
60ec9f59,-5.925628935706715,2.822241942857431,0.5503520383810624,-1.0862261117837555,-0.8469360331096916,-0.4114244168824746,-0.8664096185588752,0.5291716218097897,-0.3345473126249914,0.7182301496891247
54d2bc81,-5.929600475203618,2.8268553841324917,0.5496141140727202,-1.0881736511763545,-0.8520095510760795,-0.4109635843927351,-0.8891202778248455,0.5381087317610677,-0.3416670565638522,0.7549147208283692
a4a1d36,-5.929556620781301,2.8270555511950515,0.5489046029614756,-1.0881323776327532,-0.8519834056411209,-0.41083079646678056,-0.8887117440168872,0.5371750494794169,-0.34114970660946353,0.7586207217163937
3655e75c,-5.927375485165897,2.820939744829935,0.5464366322481198,-1.0839635343960232,-0.8442396983468393,-0.4097241810870136,-0.8765100128405661,0.5258893964752455,-0.3444692944179532,0.7415278682424646
733ef576,-5.68319687335029,3.2100994166310794,-0.2678856281507548,-0.7261735586739402,-1.426507885892042,-0.16139540499232424,-0.9422818867772533,-0.09997712360118718,-1.3245778676843507,0.5617687326499428
2a01f61d,-5.92577240539609,2.8206307642142012,0.5456280727518279,-1.0835531413441715,-0.8501277532902618,-0.41000413771465793,-0.8744127124405869,0.5285363170346397,-0.32279439360578427,0.7287177989821936
1c568417,-5.256844487234005,2.0352252638819692,0.4818926273130567,-1.2070009659030254,-1.3558325114247416,-0.92756519319066,-0.9140391101335757,1.101126040625812,-0.8392105003630954,0.511435428586061
5b302dbd,-5.928201716105843,2.8216919703906043,0.547154082680185,-1.0841122431175028,-0.8471326003221029,-0.4107136583444034,-0.8834934826805565,0.527989816967041,-0.33888498442268367,0.7279376054471377
59804ba6,-5.927213156006946,2.821832817310775,0.5491402908692932,-1.085445603697438,-0.8499064447140723,-0.412661280280409,-0.8845027644120456,0.5288112958376745,-0.34054337164612863,0.7315710027782707
29296322,-5.925038107284828,2.821569739964097,0.5466480737074975,-1.0865013040372595,-0.8449285948322202,-0.40856068125775374,-0.8795150928415199,0.5279400441753004,-0.3354388346843169,0.724595797102912
4c8a5e2b,-5.660709138625724,2.2930897810611346,0.3238366317804652,-0.4583547354519972,-0.05422900529743642,0.3029761156277399,-1.556120408252296,0.3745308883138887,-0.17248756108223398,-0.06402543170993799
2b908052,-5.661112836330662,2.2952569965295893,0.32019166054252124,-0.4631664007168936,-0.047745343150766915,0.3032421364357597,-1.5550985269719502,0.38173183961194007,-0.172894172599489,-0.056680976155024806
73029c,-5.926203388220259,2.820270832649409,0.5452089768368251,-1.081107824504681,-0.8479432512484395,-0.4090017425907807,-0.8747053792035292,0.529089393269274,-0.3363510634817117,0.7255767521721921
7376f92d,-6.140798810527725,3.267718313145531,0.7385643135190885,-1.6557579385962062,-1.6847115019885375,-1.248124517049554,1.3135439315511035,-0.17344238623164585,0.048420644252284595,0.00019473656510095018
5affa761,-6.083341652800675,3.1407753034222705,0.6914849878321557,-1.493984198688073,-1.4212731028518357,-0.9691296172958024,0.30130476085157476,0.26082439417815134,-0.22383485519528928,0.6913099583129709
60aee23e,-6.142098511133935,3.2681895171105917,0.7392308838157922,-1.6608312199200599,-1.689735157675107,-1.2487863559104824,1.3206656454353844,-0.16893390742453657,0.04213310870763086,0.007721761062664867
32c6a3b2,-6.084641353406879,3.1412465073873337,0.6921515581288608,-1.4990574800119283,-1.4262967585384059,-0.9697914561567287,0.3084264747358559,0.26533287298526087,-0.23012239073994276,0.6988369828105364
4fdb17ea,-6.084193845642169,3.141818222764537,0.6909820886010756,-1.4980114183749813,-1.427902435739128,-0.9622586906846924,0.31909659959266884,0.2626017699672174,-0.2252330774095818,0.6849466059877257
596310b2,-6.0842676455060145,3.1419943293066352,0.6917066849685011,-1.494210373296833,-1.4206917001306456,-0.9681210014031678,0.3009275814271669,0.25881612193441195,-0.22283325675185778,0.6862384720718017
4a3e1811,-6.083097790853323,3.1425818618999335,0.6900864000694127,-1.494341853652896,-1.4236120689435576,-0.9700508805923983,0.3019023544062735,0.2619333961077508,-0.2235336533410338,0.6945942095792027
6a835de1,-6.084388728851606,3.142762013005892,0.6923614376887995,-1.4964685400259,-1.4217742989941946,-0.9702105965885316,0.29703992226286285,0.26229239840613816,-0.22696593592861947,0.6938011816421807
2d89b5d1,-6.083987062130514,3.142458457267711,0.693664787380544,-1.4947915347577942,-1.4239979304688604,-0.9707258259710559,0.30003682979586915,0.2623777011164432,-0.22642550991227484,0.6974786280108325
1d2927a2,-6.0837606997947145,3.141619223364747,0.6918597667480618,-1.4950454448893729,-1.4226625531107204,-0.9703719511670492,0.30195566485401637,0.2615528915823226,-0.22454252849780207,0.6941914189416211
bb04827,-6.083230548687008,3.1414345642648205,0.6900594118119778,-1.4943724966635987,-1.4238376449254047,-0.9716603319957692,0.3013693024213788,0.26120542338305675,-0.2276264972386951,0.6922163094177788
5c80a1a0,-6.083337308450207,3.141244958664051,0.6903440660746626,-1.4953691507288283,-1.4224950007517168,-0.9687031575035673,0.300876358505411,0.26201394944312284,-0.21718688787881738,0.6907965277601157
13b57555,-6.084068042082258,3.1417220837157593,0.6917989778970927,-1.4949868097969354,-1.4231226505901249,-0.9715350263387376,0.30311240927471705,0.26379114929752584,-0.22669714058771118,0.6954119808344724
5243a981,-6.083364226503469,3.1419864661268853,0.6917894747519417,-1.4951985500070424,-1.421970316021879,-0.9708464185194068,0.3021499530198033,0.26443660556814175,-0.21978101427591124,0.6947764511434883
70299885,-6.083877705645712,3.1401904221782004,0.6913050076357948,-1.494399600379476,-1.4238012127355877,-0.9731049662357147,0.3002471449970355,0.2604690659019725,-0.22326079495203738,0.6935231133874954
1064416b,-6.083191693355907,3.143244793365049,0.6898788216263047,-1.494144696508756,-1.423007713391229,-0.970470149924877,0.2993793118489434,0.2648625704349342,-0.22714400482127398,0.6928758533077407
1acf6aaf,-6.084226751080454,3.1404346059177555,0.6917520896129373,-1.4960737066838705,-1.424769857530688,-0.9680368418879575,0.29941862758774196,0.26535274985493396,-0.22583117008884293,0.6929232533273632
78bfc437,-6.0831615631903615,3.1411095966336777,0.6928716144150896,-1.4964718267040136,-1.4209210598865207,-0.9721925647705496,0.3012881460127758,0.26252715703693547,-0.22221123201312037,0.6922862959681696
252a047c,-6.083760699794713,3.141619223364747,0.6918597667480618,-1.4950454448893733,-1.4226625531107207,-0.9703719511670474,0.3019556648540168,0.26155289158232253,-0.2245425284978016,0.6941914189416208
25533d5e,-6.083750281267246,3.1406250289404505,0.6917400520333721,-1.4954606427110315,-1.4238372543735813,-0.9705164307078302,0.3009747225424707,0.25994353452387314,-0.22285773918325502,0.6948113024707385
242aa94b,-6.084520674026605,3.143083386462637,0.689803417562099,-1.4925521619842568,-1.415798302179137,-0.9704482468776927,0.300252118683416,0.2649725446400539,-0.22130259215389222,0.6932400509640492
a66a1eb,-6.082935125257926,3.1428199541693735,0.6875512213752707,-1.4934543457480118,-1.4252626720950339,-0.9675389444511746,0.30355694066640704,0.25314251657207115,-0.22288949987838133,0.7086575669403888
44f6834c,-6.084221933387685,3.1411300607588926,0.6914824095351002,-1.4943090032203257,-1.4225456779776857,-0.9712971127539847,0.2979335551963265,0.2611268479424986,-0.2241074237268644,0.6901608274751064
2afab2c3,-6.083627390142959,3.1403561981913946,0.6907570177718478,-1.495349870190667,-1.422366755247378,-0.9745723405303393,0.2985000702911756,0.2600736731062941,-0.2279756425590984,0.6928483675245404
53999e59,-6.083829908665411,3.14139736592927,0.6947644246664999,-1.4932247589404672,-1.4247768628499728,-0.9710078721769416,0.2970848139024284,0.25966497854642134,-0.22479252911194164,0.6945229801931324
3a403332,-6.0842984037637144,3.142637780154662,0.6914418342778712,-1.4952197334020938,-1.422228826767193,-0.9709906596760509,0.29669898283689017,0.2650057538664689,-0.21643474916247563,0.6988641671828046
54412424,-6.08430278713608,3.142248314721784,0.6919060079736213,-1.4948737266632628,-1.421764019116825,-0.9691339809512572,0.3003253292304669,0.26046583481702484,-0.2239396126918601,0.690410519804334
6dac13d0,-6.082797862948634,3.143208881166148,0.6916278080496524,-1.4963658293359337,-1.419528444323968,-0.9758768944311152,0.3106377668402038,0.2709703242176037,-0.20865430584839567,0.6929830633769576
6d9800ed,-6.083060544535378,3.1419475382221127,0.6931176069012697,-1.4953598005390811,-1.4211743759176976,-0.9713042535499381,0.30223577083425335,0.2669868423722649,-0.21689060560772733,0.6922574826456458
1c942be,-6.084563767503368,3.1430446242096575,0.6923924148554308,-1.4964100177357325,-1.4241022047226943,-0.9713983802956616,0.30104591212196874,0.26254449498575444,-0.2256522225714734,0.6970542306061586
667453df,-6.084363214325261,3.141066154830832,0.691295456540347,-1.4936146252634135,-1.4213048525747833,-0.9701726890913137,0.29993932593785255,0.25855106687839524,-0.22251548693239723,0.6855218013969593
701a5352,-6.083816092430725,3.142621084113739,0.6952496913655977,-1.494116072914575,-1.4252574538482783,-0.9718207556217189,0.3104179837121868,0.2553268602020092,-0.22313996544624737,0.6934809202769204
6eec2e9e,-6.083808455410888,3.1411551849604984,0.6916542826652426,-1.4947479439023257,-1.4229693784385962,-0.9713971934860522,0.30146363693404343,0.2614241513884565,-0.2243864247145251,0.6938486118453762
6147b7fb,-6.0839583965194235,3.1429829366383477,0.6921113144416867,-1.4959126509582952,-1.4224358296534911,-0.9707200196490597,0.29783426638090404,0.26625451975571646,-0.22087848026012283,0.6960617700084306
26e3ee42,-6.085283357631486,3.1462266685183105,0.690828568624391,-1.4971284099100906,-1.427383459916471,-0.9734674721184499,0.3021351767820289,0.26179639259969395,-0.22861909825625085,0.7026741509026967
30088ffb,-6.083649541277421,3.1420852749502717,0.6930712278897166,-1.4916114839977686,-1.4248510227072009,-0.9733310232615913,0.2995575314847645,0.266220644207249,-0.22941280881186696,0.6949585416157877
5f2a5e98,-6.083211235608872,3.1415827693995637,0.690223083173681,-1.494814867158683,-1.4212342990512574,-0.971921944729968,0.3034947676088509,0.2632505387675083,-0.23238576848006437,0.693379937304002
1dc76084,-6.083899442188793,3.1409344027710304,0.6920072630893757,-1.4962209770017543,-1.4237259080958264,-0.9671314737569149,0.30074714102212896,0.26163752593121903,-0.22392363544140662,0.692495464481978
10223c79,-6.082549987152899,3.135290651877793,0.6932230711747077,-1.5022261018342944,-1.4330646641822993,-0.9540333210062003,0.30358707928697065,0.2673574663350079,-0.21119180833000042,0.6951367868009574
768cb5fe,-6.094520794683255,3.1603868943028397,0.7029456786176271,-1.5166462381850951,-1.4433108847394158,-0.9953037292977075,0.3525566623876601,0.2170042382010401,-0.20082906905073455,0.6464820483371716
109c6447,-6.083659248211231,3.1413911013169105,0.691792052439639,-1.495636340636501,-1.4217651702085186,-0.967969158198388,0.30076297557864146,0.2603812856416311,-0.21715273550849046,0.6900680193630393
3356db2e,-6.080183024061682,3.0507404410863135,0.7053619090517319,-1.6392329080633505,-1.5858401070720445,-0.49857860777138974,0.5478041017141784,0.708952136386283,-0.37995064091746106,0.6302390823455083
57f3415b,-6.0838036683479135,3.140618055115381,0.6915723507555384,-1.4949436671603544,-1.4237105650755233,-0.9717331464971732,0.3005102334191232,0.2599041585900769,-0.22260898352806024,0.6942213375382267
4a1d0f3c,-6.083808455410889,3.1411551849604984,0.6916542826652423,-1.494747943902325,-1.4229693784385968,-0.9713971934860545,0.30146363693404304,0.2614241513884563,-0.2243864247145246,0.6938486118453732
4c80ef2e,-5.973235598348182,3.1900731304149166,1.5430855659181935,-0.9320408526851232,-1.689026674380954,-0.8879786210501366,0.2909860913487992,-0.020800276065037444,-0.5657494138832831,0.7827371781521901
3f245e6a,-6.083652798370912,3.139148753749935,0.6905556563845962,-1.4954220268366052,-1.426435562509522,-0.9689859092767292,0.30178653343741696,0.26342813581958746,-0.22451446676357992,0.6928499354201693
1165089e,-6.082956361098537,3.1414968065209945,0.6909024856299805,-1.4967731240573152,-1.4236843886438264,-0.966170658891128,0.3041971191754465,0.2654957461280984,-0.22681970281000255,0.6941041718220937
3d02080f,-6.084018991354805,3.140059092771602,0.6916454662204303,-1.4958003723822009,-1.4236058723197698,-0.9632411486348544,0.30717866891066303,0.26828703201304893,-0.22706813222075928,0.6945502232092184
2980cad5,-6.083248882772592,3.1417105908894825,0.688230094784796,-1.4931756429004472,-1.4265726365632692,-0.9733915598360098,0.3006531145316277,0.2593033259729097,-0.22821291038887442,0.6945884873406334
190716a0,-6.08353400809468,3.141975567266071,0.6911189895265464,-1.4947251545924214,-1.4231697703224009,-0.9701590785522485,0.30189102071219165,0.26110821386639704,-0.22522187683101424,0.6941147346801825
49c9c1a4,-6.083571621338438,3.140710441712899,0.6921376681989588,-1.4968447318087221,-1.4228093304489107,-0.969384756044329,0.30118482044664924,0.25855274399205985,-0.22439850832121402,0.6947426019817103
f9fe4cb,-6.08302861822747,3.1426121643530323,0.6923154454538589,-1.495130301323443,-1.4222413307248214,-0.9704763275699364,0.3001177644528756,0.25939172700376933,-0.2299381340639684,0.6939906573159788
2bfede8e,-6.083596900649863,3.1409887921561803,0.6913354764339935,-1.4965928796824257,-1.424007005311627,-0.970520138494978,0.2997234629871423,0.25891114873229815,-0.2256433144107832,0.6957456181511614
142a843f,-6.0842952738736065,3.1439823422153657,0.6962321247511394,-1.4977624457632477,-1.4149131599852987,-0.9653765004706263,0.296372113728059,0.27143745741362607,-0.2287410502361262,0.6795056741017708
aef6b94,-6.0837606997947145,3.141619223364747,0.6918597667480618,-1.4950454448893724,-1.4226625531107204,-0.9703719511670492,0.30195566485401637,0.2615528915823229,-0.22454252849780149,0.6941914189416207
2dbe9ce6,-6.0841689351919825,3.142377132557814,0.6921562037802805,-1.4958148187166314,-1.423492062779329,-0.9708959100434053,0.30006934712926414,0.26302149348096726,-0.22561091839338318,0.697211899316126
7bff4811,-6.084278072946209,3.14139230229035,0.6921181213523164,-1.496358926705533,-1.4219331123362822,-0.9647872131794861,0.30057408900433424,0.2668617658438622,-0.22638781864964552,0.6900475306898551
7b1fc4ae,-6.0837606997947145,3.141619223364747,0.6918597667480618,-1.4950454448893729,-1.4226625531107204,-0.9703719511670492,0.3019556648540164,0.2615528915823228,-0.22454252849780176,0.6941914189416204
1c146f74,-6.0841689351919825,3.142377132557814,0.692156203780281,-1.4958148187166316,-1.4234920627793295,-0.9708959100434063,0.30006934712926425,0.26302149348096737,-0.22561091839338254,0.6972118993160972
1adecec1,-6.084498325510865,3.1416108601254735,0.6914181455446904,-1.493736883826125,-1.4213891022931069,-0.9704028611340041,0.30336881488116796,0.26353407618652036,-0.22714359192432043,0.6892280738447554
4986e210,-6.083674817244121,3.140654588160888,0.6905831444942521,-1.4940351027185392,-1.4239813843626492,-0.972059937447006,0.30127505790647263,0.26132489067461584,-0.2250547362134393,0.693909153442138
45d77219,-6.084126323530933,3.142058771118385,0.6918938735837528,-1.4949056100985827,-1.4219302557040392,-0.9692399453996927,0.29893829560813195,0.26139696436774357,-0.22442664870217033,0.690884105609412
2037899b,-6.083526881021936,3.141548801068372,0.6891156598358129,-1.4901273084339313,-1.4199935829455415,-0.9716783871283364,0.30489858325666663,0.26996868280414893,-0.22105953920197824,0.6882136411384685
53736d7f,-6.082900339148796,3.1419406909435033,0.693007011984613,-1.4963237102338587,-1.420121406082541,-0.9717507912638043,0.3021554269559208,0.2639862091471335,-0.22163275320503,0.6941041947270872
4eb52991,-6.083870077214652,3.1401327601059212,0.6924626554681533,-1.4922509349311561,-1.4233092797001012,-0.973334914289112,0.3026003971702309,0.2643865527776234,-0.22857742565915715,0.6933092397457852
6d7b51a8,-6.084644511142581,3.1412661929044785,0.6876236205599979,-1.4918677915165979,-1.4218981168672338,-0.9691595475285717,0.31604800545483375,0.2613903193102867,-0.23184723332940577,0.698033042435759
5e622a9d,-6.083818937666686,3.1419431681231402,0.6921788249329605,-1.4962226487846713,-1.4220927526076503,-0.9710809623356359,0.301011365599571,0.2617125719136253,-0.2265402955822679,0.6956034540249403
15ea2ae5,-6.083930712536263,3.141392603999096,0.6942827410997919,-1.4912642858227376,-1.4218889449483945,-0.9696048175404683,0.3028588020159715,0.26219854798353853,-0.22857112867339216,0.6889415325613093
90cad5b,-6.084171889108672,3.141815695244948,0.6913634283263986,-1.494137321199514,-1.4209725962200228,-0.9708178961299941,0.2986506453295986,0.26232250602701596,-0.21848792580990542,0.695869402007589
7e922975,-6.084354881982658,3.1401193386929167,0.6908248760468564,-1.49292017227933,-1.4228239038919093,-0.9750856761119076,0.3020770673913035,0.26688686935327627,-0.23001606981500755,0.69437640964981
3ef0b8d5,-6.082280230328956,3.1416010567351935,0.6870968160149785,-1.494539374287412,-1.425306362508486,-0.9691388132743588,0.3031006404369456,0.2608086802409235,-0.234924468566003,0.6932705416210295
850c20,-6.0817659589135795,3.144552794840802,0.6863178681276825,-1.492763210766568,-1.4259446839175622,-0.9691295478174146,0.30154841075753397,0.2596790271317379,-0.22763912461948652,0.6934394744102538
a2455ab,-6.084020049933801,3.140799228005076,0.691726691197627,-1.4951196936764817,-1.422157158092982,-0.9675293290188732,0.3024340854846255,0.25770869695317544,-0.22253228148466814,0.6953813412241939
ecc2fde,-6.083344499670996,3.1409529557838036,0.6922287066018321,-1.4973741587491785,-1.4202282509191593,-0.9723965168161688,0.30123954996174296,0.25898954269491264,-0.2279733643245932,0.693908357367908
48552e75,-6.083032343133276,3.1419452612104,0.697948275718933,-1.4909113734612296,-1.4247115560460788,-0.969682990394697,0.301855020915828,0.25881528990198643,-0.22804508415526453,0.6953883681831737
3af83190,-6.0837606997947145,3.141619223364747,0.6918597667480615,-1.4950454448893724,-1.4226625531107204,-0.9703719511670492,0.30195566485401637,0.2615528915823228,-0.22454252849780154,0.6941914189416207
3953a93c,-6.083906766523165,3.1408405082105957,0.6913932237718615,-1.4940871520126016,-1.4226547835736447,-0.9723156913188947,0.3020748305166175,0.26289075959616054,-0.22611867290160767,0.6936566328046472
386b1ba9,-6.083571633107722,3.1417050824372055,0.6899613334833429,-1.4935325411510387,-1.4228426726830012,-0.9689509390634838,0.3031957550287007,0.2597039800047758,-0.2258976881357359,0.6954234009923698
6afaee67,-6.084911277847401,3.141276436522573,0.6914787335764866,-1.4946585401106418,-1.4236715759430028,-0.9722949007032896,0.29625368468731983,0.26202782850745737,-0.22349546946435225,0.6983158394468505
72bf73ac,-6.083932128478123,3.138865606376181,0.6911739469902968,-1.4952473951762728,-1.425491074649405,-0.9699067030964091,0.30230425700023195,0.2652500024393977,-0.22544320701227719,0.6922218799943288
14e7208e,-6.083244848463492,3.141844227258239,0.6902598287671841,-1.4934444225110295,-1.421539911739352,-0.9710677491884244,0.303062504206114,0.2628521508290348,-0.22160750084447392,0.6951105243137656
5ee6fc40,-6.083716625703921,3.1407146873482596,0.6919902335659368,-1.4962909113189808,-1.4240924050309725,-0.9676994604986333,0.3022592767265358,0.261716103850524,-0.22398276388245983,0.694159082132495
108f98d6,-6.083145857119414,3.1394761448339685,0.6922443270926407,-1.499092623139789,-1.4210224051064264,-0.9698453265104969,0.3025363259401409,0.26213593279111536,-0.22786658210602878,0.6946435565714307
491d9bae,-6.084180772873031,3.1409992428379216,0.6919034152759534,-1.4958817539969067,-1.4238092859529918,-0.9695746902593771,0.2979256264343344,0.2610794696193814,-0.2244552811778617,0.694271498213948
3c62fb9f,-6.083556210130823,3.1412121756371425,0.6911721977232511,-1.4936678324948975,-1.4205158041085573,-0.9732970651244175,0.3041105566756722,0.278552365510071,-0.21334373008161706,0.7001409354265238
2f76f660,-6.083596309777553,3.141669973103332,0.6922663535655703,-1.494991590535527,-1.4225145807805661,-0.970490729179676,0.3019830330943105,0.2630199181341285,-0.2224193774328642,0.6933336633386813
243180bd,-6.083956419089486,3.1409799546625288,0.6913647746086481,-1.4938712821136257,-1.422188616811485,-0.9714490727484892,0.30361348346554284,0.2652774604891841,-0.2280594131238955,0.6937302021752176
52818c2b,-6.0837606997947145,3.141619223364747,0.6918597667480617,-1.4950454448893729,-1.42266255311072,-0.970371951167049,0.3019556648540164,0.26155289158232264,-0.2245425284978017,0.6941914189416204
547a02a3,-6.084054526606499,3.1429447342817203,0.6928441457901149,-1.497767361181444,-1.4229791311807418,-0.9731588797996574,0.3032052850221158,0.26367157720540885,-0.22567850540173176,0.6972106388998814
1d39da0,-6.083342292369086,3.141514545120352,0.6973130363364083,-1.4909956401796314,-1.4237805381270283,-0.9669182744394499,0.30329137067847206,0.2606463232860933,-0.22660015326747893,0.6924860197976748
7de60e92,-6.083964791323271,3.141998388702599,0.692008909781509,-1.4954312432504357,-1.4230765395098584,-0.9706356551169719,0.30101982310376685,0.26229190905355015,-0.22507150423676292,0.6956897767840593
d8da4e0,-6.083394256128005,3.1417969159676713,0.6948229147484981,-1.4929447072228568,-1.4237760806354667,-0.9699812699370682,0.30185240585590434,0.25985277094780906,-0.22698635025800332,0.6945407699820402
48150078,-6.083032066278201,3.141677074911747,0.6915218190716107,-1.4958472074227893,-1.4214708946369154,-0.9720846351723624,0.30144907712784536,0.2638500393667557,-0.21806712090661295,0.695986348526225
734b64c5,-6.083537299433854,3.141479645693054,0.6907807094357701,-1.4937458556137606,-1.4220543644923613,-0.9716545164304641,0.30377192140215453,0.2678503977328755,-0.22329521090601648,0.6948212531644289
892c3d5,-6.084364696095511,3.1417378957511963,0.691661103908912,-1.4946403679914064,-1.423018474772864,-0.9719750893364657,0.30172666986989,0.26676064909886804,-0.22914239388480284,0.6967614622536437
748f0c31,-6.084576502070224,3.138314313115281,0.6896025856646075,-1.4891834675240878,-1.4190968871523446,-0.9770460183415239,0.3094706612583508,0.2857998863112531,-0.24212232409284248,0.6890679904794454
6a091809,-6.0317260666369155,3.227665387878516,0.5180936691618949,-1.4145358107235817,-1.5550607826397989,-0.9138231646975974,0.2842268301039194,0.07944966735232023,-0.5118377221101759,0.6279720530523271
22db56e7,-6.084341926125251,3.1409119074976752,0.6912552590120986,-1.4937024826309087,-1.4220780876101966,-0.9711863278712743,0.30087451085575845,0.264101518498329,-0.22682228575140154,0.6909296920877626
1cad9790,-6.084264771690594,3.142876251529978,0.6901129759103547,-1.4939057369054678,-1.4239196699285752,-0.9714207869642145,0.3078315168140801,0.26043956112864614,-0.22825724482895693,0.6851538757887917
58ddfb63,-6.083964810275682,3.1419981212356345,0.6920079344222461,-1.4954299430604185,-1.423076967730616,-0.9706335316333015,0.30101215698335326,0.26228667817373164,-0.22507615851369303,0.6956986263341599
23c34d97,-6.083442815164535,3.141815428693865,0.6915609816515812,-1.4942274004097111,-1.4243571149889183,-0.9642490882857147,0.30283958591950116,0.260792302038147,-0.22746210583794346,0.6880844061532313
72bb82cd,-6.083914034380748,3.142323135711809,0.6926520860721548,-1.4980903818483702,-1.417528891865832,-0.9702568825429689,0.29717223760497746,0.25856473720075857,-0.23000533737525009,0.6870025106772932
68b43784,-6.083563788060736,3.1404507895041425,0.6915437501047669,-1.494809621953556,-1.4211151365624568,-0.9729103907769406,0.3030936644132315,0.2661335169100252,-0.22471771205926427,0.6943166322740986
2250078e,-6.083040431376111,3.141245667306869,0.6927401340009093,-1.493896636122869,-1.4238241269528642,-0.9719632095629114,0.30065984573539967,0.2638262569180414,-0.2157286825123486,0.6943826832509468
76ac90f7,-6.084364696095509,3.141737895751196,0.6916611039089123,-1.4946403679914066,-1.423018474772864,-0.9719750893364653,0.3017266698698909,0.2667606490988672,-0.22914239388477387,0.6967614622536997
1060be8f,-6.083143367413448,3.1416270165075315,0.6926241541979034,-1.4940008057134395,-1.4203826806603026,-0.9698218690674542,0.2995605912402616,0.2594482291824041,-0.22554095335710958,0.6927730656451108
1881cb8c,-6.083846035487789,3.1433102258869585,0.6910164253652961,-1.4935569558354156,-1.4216256220419818,-0.9677536450749223,0.2990465965853761,0.2619532543319985,-0.2226089820184894,0.6907500512150377
400ee8fa,-6.084467599689196,3.1422486718532268,0.6918159536446584,-1.4947764473563903,-1.4226068540868562,-0.9713548448226969,0.30435680107105934,0.2627077340538772,-0.2254986113697859,0.6983697138725322
3828a6bb,-6.085332971033167,3.1430120023518793,0.6917434377697456,-1.4942590392248052,-1.421669633905781,-0.9710067774741006,0.30708224987085914,0.2620318901388944,-0.22577381738589503,0.702540101927447
2271c37f,-6.004372239485507,2.9817921732762396,0.6192999196617887,-1.2909791224848124,-1.133675819735728,-0.6904096707717927,-0.2832644014301796,0.3964755557985329,-0.2747629307053334,0.7056105347060387
116a7885,-5.738961263038643,2.456821734710594,0.39235842905834434,-0.6710426251204833,-0.3382563909206605,0.01980241920122603,-0.9557418490625773,0.24934616933968753,-0.11404029436792203,-0.07074558157385001
326b5cd5,-5.918175665632098,2.8305052756775866,0.5719761681151083,-1.1849267040279834,-1.0515224108050538,-0.700852920025019,0.4016351297713501,0.04733133005350981,-0.13107627102461086,0.38001350093521985
77fd4e7a,-5.918481356890261,2.830966931025049,0.5726544988258795,-1.1877248218304415,-1.05119539621981,-0.7025224907047617,0.40033739555853,0.046032703734857024,-0.1338437440430223,0.38158120857881256
1326b0c,-5.249096583616551,2.0461123230125553,0.5073384907875966,-1.3098047133439608,-1.5597415950186415,-1.220263003044274,0.3615156878260593,0.6217932102685945,-0.631561237990356,0.17121810241702465
4746ebad,-5.9183957620168,2.8308434213570273,0.5725471189682317,-1.1868792108564705,-1.0524671134173722,-0.7008173727978944,0.4026764897177663,0.047858562246746034,-0.1308850137865601,0.3819014188888581
2da6bb39,-5.9183921311455405,2.8304489191012245,0.5717270409780113,-1.1842026148301492,-1.052614437245233,-0.7051927877868496,0.3976767871353993,0.052288439410547186,-0.12166807707630459,0.3761743759307788
675a5046,-5.918921359201139,2.831515982626851,0.5721834443253999,-1.18521253386667,-1.0512335458856505,-0.7002463943813623,0.4018331013342626,0.04560385883397745,-0.13034136041148137,0.37636668639675236
d0f2b95,-5.918736306379051,2.8329035423692,0.5736804435258979,-1.189395091446713,-1.0512500283483996,-0.7047781247807594,0.401727914149036,0.05042321412348206,-0.13251340291351296,0.38583269475514853
4e294580,-5.9183681582834415,2.831734202480936,0.5729374212979902,-1.1877792636080404,-1.0521827485651158,-0.7031921570428199,0.40541766612224545,0.04683340373368444,-0.1265954861443017,0.3761712113019371
45b10344,-5.914714395611128,2.8323179166618195,0.56490148666679,-1.1823810528034158,-1.057657542068065,-0.6986874155381254,0.39552562916815104,0.04679229352006296,-0.11325658391476566,0.37953113917519415
b954875,-5.555074180345279,2.4336155731054077,0.6223874778435504,-1.5485592401885622,-1.530791106932108,-0.36883238052736783,0.37392251234237156,0.18484647903282528,-0.01850136378638845,0.29080937624287145
75ecaecd,-5.918583577288304,2.830771207510585,0.5725385512729316,-1.184425070346534,-1.048181708451752,-0.7018174461237932,0.4070522580398877,0.04876947628760841,-0.13140708968682602,0.39036691139678875
7101353,-5.919041910480405,2.8310985230259598,0.5723792690529506,-1.1868165682576315,-1.0553445200075908,-0.7050898250327327,0.40858283798667006,0.04258401548751268,-0.12742838216096553,0.3760224279182196
67f06c20,-5.91922372776274,2.8315427553661983,0.5719465316083894,-1.184298296456861,-1.049631278115031,-0.6987866212915745,0.4030164420687898,0.044012124641127845,-0.12978364640012052,0.37691401159937926
778db7e0,-5.91800820087322,2.82927424767054,0.5781656349448558,-1.1832790672966509,-1.0570438385754937,-0.6939848755807424,0.4063687279783629,0.05093428842492812,-0.1368185337194878,0.3822670995925381
44c37de0,-5.918302344859374,2.8306711392580945,0.5721479882673212,-1.1864622303237087,-1.0528227661014948,-0.6973911691693292,0.40596436486765847,0.055601165591775616,-0.12723869483167982,0.3826729618755871
7a712f24,-5.919124492167291,2.831896011923501,0.5723407110579797,-1.1856402700078554,-1.0517987173021166,-0.7006313832462014,0.39975832187857,0.04770746952189483,-0.1317657891271951,0.38167431434280946
6be6cdad,-5.918272209438766,2.831386361698034,0.5716878491575522,-1.1851741084781082,-1.0518457043981067,-0.7025921089379663,0.4036722374888308,0.05230850890268944,-0.127138165789392,0.3839412169540853
6ad7db69,-5.918887670856562,2.8318950869808743,0.5751013873795154,-1.1826663202852283,-1.0512229389852388,-0.6988105636707201,0.40061251005120474,0.04438353173941792,-0.1324390691959861,0.37942248270034273
75d8972e,-5.918334546313766,2.830154347979169,0.5723402541759902,-1.1872514932789568,-1.0516301557598846,-0.704008399250838,0.40105835721784694,0.04465554346762059,-0.13247516096141285,0.3814191204897066
45707ebd,-5.918211993067154,2.8314924180101393,0.5727300217646163,-1.1861897200608627,-1.0513585796177838,-0.7024436589486106,0.4027273009196706,0.04994554353283725,-0.1281073045418174,0.3813751222852873
7fb62765,-6.083386240228203,3.143195467054184,0.6915015780605214,-1.4951411067616,-1.42441617916346,-0.9710883714800043,0.3027569230811316,0.26374658517038374,-0.22205934254616497,0.6939344855651148
67951a95,-5.918220253059625,2.832925439309501,0.5719927583434734,-1.1860836121015095,-1.054665487116679,-0.7028116742092214,0.40308729200090704,0.05025352104574236,-0.12930075837548657,0.3826380281873636
1ec7667c,-5.918787623394488,2.8316870549944557,0.5741771684638495,-1.1860679898349746,-1.0546555094979668,-0.701781306856334,0.40288921157550667,0.045791666178065904,-0.13208451857681552,0.38374263913197065
76adf2ae,-5.922633678151433,2.8388458113721406,0.5753639767063161,-1.1923329211860763,-1.0610538151793358,-0.6967524904733567,0.3577839813915186,0.04953785428280243,-0.14339898860819164,0.3852026764492269
1601d402,-5.917644055027532,2.830621511508296,0.5734517889610727,-1.1907592822316626,-1.047854339339017,-0.7023879817446891,0.4033925560491017,0.0471925215122332,-0.1375952323475765,0.37991871267300503
5a95d02b,-5.9188604906036915,2.831255296270558,0.5722009559493423,-1.1856734301809573,-1.0529608036154778,-0.7029857611649376,0.4016168155581691,0.048868872332364054,-0.1328155355929625,0.38283617982413737
5e3364b5,-5.919287437177828,2.8331046551228027,0.5718368774806327,-1.1855892541526016,-1.053193010035807,-0.700688890842176,0.40114658312792956,0.04649558665122663,-0.12909201723176547,0.3747624057155834
370340d8,-5.91796086548381,2.83142312990311,0.5732645192754268,-1.185111698938015,-1.0534746076264894,-0.7010975682766696,0.4022619126609624,0.048235839103080755,-0.1268487007598386,0.3832312393591454
1933aae6,-5.917478662569294,2.8319043251924145,0.5765060697163765,-1.1852034334154695,-1.0517254356262609,-0.7032763628155995,0.39958356764991443,0.059422052922489844,-0.11335606870077124,0.37482425681472864
2a79aa88,-5.9196997603066155,2.8321803534182064,0.5693825926940996,-1.186132660549693,-1.044744351506714,-0.6973040774994627,0.4169541553582126,0.027774465729799393,-0.12824073122220994,0.4174508374636014
707900e4,-5.918734598816393,2.831279198346775,0.5721664404791039,-1.1853091290812834,-1.0517429671919527,-0.7010123766959885,0.40310963806681327,0.04663125267908156,-0.13120113566202432,0.38191544482058465
597d389,-5.918712995517424,2.8308557044113143,0.5722195172859516,-1.1858050811940402,-1.0522968345361317,-0.7003290213876578,0.4027415110665663,0.04553963743020204,-0.1304839715978794,0.38218307986547556
32323dff,-5.9187523063513,2.8313908017979412,0.5722351182113861,-1.185489989459849,-1.051893444985219,-0.7010011377970989,0.4021603332789748,0.046551839464791675,-0.13092121481302074,0.37894814110619535
1085c752,-5.917810455548778,2.831196655308853,0.5727764310344837,-1.1849001205522973,-1.0538869217629523,-0.7009217069650182,0.4031101230569991,0.052061568605106585,-0.1254166913268666,0.3830085697739004
3a30f51c,-6.086044342647717,3.142418712331648,0.6919846276626596,-1.4982302805048986,-1.4256214613246239,-0.9710303986855056,0.31067878349979666,0.26841689723772555,-0.23244997975077722,0.7073816151707759
54a36686,-6.084641114679843,3.1437604280205504,0.6930102233192436,-1.4982688122077314,-1.4252588117264855,-0.9739512448918451,0.30373349373355335,0.2638980966394316,-0.22635068779945253,0.7008564822543752
46134a80,-6.08452824238611,3.1448505339184925,0.6955243505982502,-1.4984658664680954,-1.4264128235827924,-0.9754952442809379,0.3044977393617716,0.2667121147680291,-0.22404343969649976,0.7030653438606027
5c509751,-6.085388790598125,3.1441352432869767,0.6929617939623156,-1.4982222780279761,-1.425096509847687,-0.9739013661238118,0.30625558846350437,0.2593107625104631,-0.22398068225627038,0.7149746030521759
66321001,-6.083609545223562,3.141875938833032,0.6901379259573844,-1.4943754987782374,-1.4249666451287202,-0.9721940885834125,0.3014663245348584,0.26060825969099904,-0.2265594046985511,0.6951131950880783
10619e3,-6.08188839071175,3.0963141979399764,0.6987638835193001,-1.5683258196545518,-1.5038176324308132,-0.7336349678288121,0.42558946667069636,0.48688796339948476,-0.3020562064743192,0.6611910863278398
33a15250,-6.083726149167333,3.142077790762702,0.692664516402055,-1.4938736239365489,-1.423661614145332,-0.9723917184767007,0.3009817656609214,0.2643284238662737,-0.22717917539179436,0.6949453763459341
3f7af39b,-6.083476530042379,3.142198798728957,0.6896953577763906,-1.4943661325552773,-1.4244649233787567,-0.9697769061808623,0.30267536199077993,0.25745431204376035,-0.22381295115780012,0.7020069257660756
417f13a2,-6.084165829118364,3.1414029426491137,0.6915508489819238,-1.4943976140362727,-1.422887348905252,-0.9720747010094584,0.3039399614327709,0.2656558071541238,-0.22848773039587408,0.695184215825417
4b8462d6,-6.083042526889061,3.139433023496238,0.6930761670364877,-1.4971412166561653,-1.424527108905496,-0.966480585810392,0.3006723397336438,0.25419282285050754,-0.22252787213146855,0.6963012508706858
44b8e0f7,-6.083760699794713,3.141619223364747,0.6918597667480618,-1.4950454448893733,-1.4226625531107207,-0.9703719511670474,0.30195566485401676,0.2615528915823225,-0.22454252849780162,0.6941914189416212
48a5c302,-6.083740912824852,3.1397565470702706,0.6891284406947649,-1.4928616566975883,-1.4245685165871464,-0.9727957081229459,0.2998921257952534,0.2556920570647246,-0.22373035556688048,0.6940718870000582
48d44df1,-6.082294132097491,3.1412981073843036,0.6928285276415913,-1.494683221592765,-1.424067328875722,-0.9713003272495097,0.29983842141143785,0.2534836438718679,-0.23152493873841012,0.6941304884112526
38e0ec05,-6.0835932210160895,3.1416481118781365,0.6920697141860648,-1.4956074027411757,-1.421774227595057,-0.9708269488777688,0.3020851645824874,0.2620586035148682,-0.22457525100317915,0.6934809065211857
18037574,-6.0837606997947145,3.141619223364747,0.6918597667480618,-1.4950454448893729,-1.4226625531107204,-0.9703719511670493,0.3019556648540162,0.2615528915823222,-0.22454252849780149,0.6941914189416212
451f6d50,-6.083419532510166,3.1428807865523174,0.689098187454501,-1.492291538272657,-1.4226556880990637,-0.9675313704082807,0.2974624055031822,0.25683925715116934,-0.22034634579185636,0.6857059467157353
75b0c699,-6.083355081924404,3.141867909391727,0.6901725171168043,-1.4941074148903832,-1.4239850423284872,-0.9709734248698846,0.3013339173213384,0.26053482631532937,-0.22574683938726986,0.6936996714877166
230f49e,-6.083528176716761,3.1414502256194767,0.6916031660735765,-1.495476151021941,-1.423147937851784,-0.9697848473562696,0.30170104539245,0.2621388056318401,-0.2203131547610135,0.6955897108887672
5f70c789,-6.083644978565903,3.1415068131704085,0.6935884088577209,-1.4935982052392567,-1.4229609632437188,-0.9707811105986692,0.29993746104175084,0.26217489941048416,-0.223001309959818,0.6915637396255561
5b981cbb,-6.0837606997947145,3.141619223364747,0.6918597667480614,-1.4950454448893724,-1.42266255311072,-0.9703719511670484,0.3019556648540164,0.26155289158232237,-0.22454252849780146,0.6941914189416204
2602b0a6,-6.083917812934382,3.1416169808084664,0.6911448901473561,-1.4950637504237676,-1.4234467763239853,-0.9750192316565757,0.309573503131203,0.2606495765373945,-0.22153329687195972,0.6870458290611569
4ff6cd48,-6.083885204534371,3.1414382094451,0.6916207740795287,-1.4941147897010723,-1.4203846503969566,-0.9704421658885406,0.3037208760201108,0.26278271920499413,-0.22390707478211824,0.6963303013386
948347b,-6.082741221195813,3.141722769234701,0.691557982394326,-1.4965697881414337,-1.4227093992133462,-0.9673927395221639,0.3042044076265296,0.2708336625634976,-0.21504270838512937,0.6952990830461684
779edc66,-6.083672458394028,3.1421984986376286,0.6909197490745712,-1.4944270100896786,-1.420414910910819,-0.970384009958275,0.30203391610838387,0.2629327561958805,-0.2248287408564476,0.6954178840967455
6d71929a,-6.083184689407769,3.140356339973389,0.6889864487175842,-1.494403015763357,-1.422874068009956,-0.9717508761188475,0.303690634901933,0.2670201624179797,-0.20303495703747917,0.7103428236265275
1d755004,-6.083364717215021,3.140502983896365,0.6908168555470239,-1.49521068735552,-1.419027582199528,-0.9743850809624865,0.3026134003845409,0.26547705339592015,-0.22747728164392664,0.6910338015263634
2391ffb3,-6.0837606997947145,3.141619223364747,0.6918597667480618,-1.4950454448893729,-1.4226625531107204,-0.9703719511670489,0.30195566485401615,0.2615528915823219,-0.22454252849780149,0.6941914189416205
27f7a702,-6.083573602861998,3.141203209615627,0.6933083694930353,-1.4942295818051707,-1.4237558025317656,-0.9702736320215424,0.30143228596616645,0.26010062718118254,-0.22451064725766232,0.6947631527006551
be2b471,-6.0832726238888775,3.1409090384945317,0.6914494506302641,-1.4968859497622806,-1.4210960089789104,-0.9685839118984868,0.3029057401114411,0.26407164926151927,-0.2233591062306299,0.6921505220117418
23ef4653,-6.0833311349003365,3.1422307852985494,0.6906674018908678,-1.491935408732131,-1.4165557907361301,-0.9694345243379455,0.3071281922549221,0.2667488597219318,-0.21600745872448884,0.6958606131746445
5f0bdff0,-6.083750058858983,3.1411835985174186,0.6919330917546769,-1.4957209665205808,-1.4233066511095251,-0.96842968957654,0.30287667398516005,0.26313822385663677,-0.22505257989608735,0.6937743902555799
1e5b5912,-6.08415703132056,3.1412406700269195,0.6920040345196892,-1.495167482102273,-1.423398890062153,-0.9701554505073873,0.29978363474047853,0.25962704302147255,-0.22427542688283972,0.6932071525919513
78629e29,-6.083502018798462,3.141031776052755,0.6919676032074227,-1.495064194121928,-1.422208223043236,-0.973121147027361,0.3002375992292225,0.2638860167983373,-0.22025456244023792,0.689915650972761
46558a2,-6.083888996037181,3.1405675167479457,0.6926893313836139,-1.4923089831756162,-1.4229171599699195,-0.9712643257133314,0.3023777145056998,0.2607046388100964,-0.22216066273028315,0.6954397345775292
1b4dec23,-6.083458809214496,3.1417048125485882,0.6945097032401976,-1.4925440171700923,-1.419760059276217,-0.9684812222918814,0.30278933049342593,0.26001296648993044,-0.2212156997019318,0.6912899323329087
515fb5ff,-6.083623298682295,3.1410370632831963,0.6917673243696226,-1.4949321591295985,-1.4205543858967238,-0.9722807723434732,0.30381675597626023,0.26606590753614145,-0.22813995394380648,0.6928047777060454
60596eda,-6.084355865076975,3.141435409850903,0.6911516005468145,-1.4926268510693341,-1.4190865671283415,-0.9680577500918474,0.30645696070254697,0.25709934916990185,-0.22253556257933807,0.7080509885965611
7e520f9a,-6.083053530303068,3.14207046698973,0.6913928878720065,-1.4989562224486677,-1.4223416562620954,-0.967356418330927,0.3035980231892611,0.2646418914342658,-0.23196192393204038,0.6941095858283819
530ad169,-6.083276305323077,3.1412296742576453,0.6929087985996942,-1.4963753298578162,-1.4220990925276724,-0.9690709850460567,0.3029060955251996,0.26538832563449233,-0.2222690898140734,0.692206199572073
42870890,-6.083307330826913,3.142332024616248,0.690378313597187,-1.4944052412471933,-1.4236776680959407,-0.9699470027117766,0.3018270807405428,0.2606645510750584,-0.22590235717927307,0.6940440744944509
14f3ad09,-6.0829307442258775,3.1418407925626486,0.691826482376655,-1.4975919730349938,-1.419416636813005,-0.9719062508240001,0.3019170498504557,0.259691357510338,-0.22929700688516744,0.6941444032080927
6c84b57e,-6.0834209521601075,3.141230136606223,0.6923109144929253,-1.496686675476579,-1.4219351797271678,-0.9688371740353284,0.3031412068457476,0.2642273949157431,-0.2247757692956288,0.694419794186708
5d3e673a,-6.0833824581369855,3.1406614186018302,0.6933017985298715,-1.4950113149983677,-1.4218086710448186,-0.9731590398003642,0.3009369405158949,0.2594848483638234,-0.22799690726223243,0.6935564015426328
202a2fe8,-6.084008266950538,3.1419014818516104,0.6923628087652376,-1.4952939040020423,-1.423557481760287,-0.9711847611664699,0.2986368459461591,0.26417037963767454,-0.22106321071920815,0.6952471379506228
4bffe44a,-6.083325405558813,3.140720275282136,0.6946197247807122,-1.4930020489930613,-1.4218118410633724,-0.9727833726832801,0.3017955945464302,0.2599173148544168,-0.2271866240647033,0.6948177696381653
9276069,-6.084637513541709,3.1421006453358538,0.6920429373814385,-1.4960185772764238,-1.424767866439774,-0.9726792597497976,0.29618169212773415,0.26335371235224436,-0.22531569023749487,0.6983508229992049
7bed8561,-6.083943504445231,3.1418389405245404,0.6918767693528791,-1.4949753389234361,-1.42229606475272,-0.9698055503318683,0.3004466332020817,0.2614744183701153,-0.22448402810435547,0.6925347707736982
5f7a7ae8,-6.083679254911002,3.1416588401621097,0.6923507590361417,-1.4983433274641933,-1.4210593625988408,-0.9690242782874896,0.2994294566719673,0.2626267267459417,-0.22638336481989937,0.6945584537283137
53c75a4,-6.08322772788825,3.142498097922792,0.6905411211399166,-1.4936751862415978,-1.4195925798039628,-0.9699969109418848,0.30351676823834844,0.2629765309244282,-0.22189235462746637,0.6926780343497846
49dd08a8,-6.083527020154815,3.1412209186838824,0.6946161724046254,-1.4923307909130399,-1.4236078248605948,-0.9699068412229713,0.302315463521683,0.26038765259345514,-0.22424890941131728,0.696194748975094
6be53035,-6.083629263931022,3.141671362127774,0.6908105641253662,-1.494088737735838,-1.42303013706605,-0.9706439398139892,0.30267824474315386,0.2625803889911956,-0.22775833401015194,0.6936889259382734
6972a3d5,-6.083227639210143,3.1414272261943332,0.688782059996136,-1.4921020125991205,-1.4229589615617313,-0.9731070724211692,0.30409609536702514,0.26882111054598345,-0.22358565182588605,0.6976434780725117
50c67595,-6.083640968384499,3.141183956510708,0.6918642325240771,-1.495310089777601,-1.422080483745999,-0.9718540917693405,0.30159235155867903,0.26193091990113404,-0.22441874922651014,0.6931336292701626
8b13fdd,-6.083736339022204,3.142366342631327,0.6912197965206586,-1.4950814403388588,-1.4236506111037455,-0.9703851818739722,0.3009267951757023,0.26158805885244746,-0.2262177690741154,0.6954958303619392
b7231e2,-6.084054734755188,3.1416121315256538,0.6932729932521601,-1.4937596047843265,-1.4221338404775896,-0.9678377246588864,0.30108846609575357,0.2586574849522033,-0.2243462342528542,0.6952572649833261
17fd5da0,-6.0834681189786926,3.142020778714509,0.6895766447371027,-1.4931897539383308,-1.4206694500944965,-0.9701389769130336,0.3039579016343099,0.26378306261976,-0.22815661396018103,0.691540012270109
7d11c629,-6.08394350444523,3.141838940524539,0.6918767693528788,-1.4949753389234364,-1.4222960647527203,-0.9698055503318683,0.3004466332020826,0.2614744183701165,-0.22448402810435572,0.6925347707736909
1ef1fcae,-6.084442219828654,3.1430790904693366,0.691144645887799,-1.4943773891371959,-1.421637246786316,-0.9676441337663316,0.29626312245123415,0.25986943666897705,-0.2253787861185361,0.6866730756416728
33035f67,-6.083642885655634,3.1412922396423544,0.6909722241471038,-1.4913968030258038,-1.423564127800085,-0.9716136063622159,0.3010001237513179,0.2614004658177167,-0.2291072000578127,0.6921634510208092
695eb9a0,-6.084327987152742,3.1426318347141495,0.6925500630962115,-1.4965046548995196,-1.4234545055799925,-0.9702718195057216,0.3003539227674275,0.26273038662362025,-0.22134791067087706,0.6949728553482682
4fdded34,-6.08505875944156,3.1436081363063684,0.6928858273449924,-1.4976074464400635,-1.4255451429576507,-0.973062824019473,0.30440440579693856,0.26476984979443374,-0.22359138160933234,0.6962131635027391
70af67cf,-6.038794599321937,3.1619217653613125,1.0643952967647246,-1.2412005477358816,-1.5512557143544665,-0.9243470011511805,0.29782613638079664,0.10105617153892038,-0.4269833587704327,0.7641541314693087
5f1d5a48,-5.294673747810492,3.747727649538133,1.3474523620002061,-1.2289534908066442,-1.0017913929381561,-1.295374184119726,0.3729367958222191,0.31511030026971826,-0.7011663892542673,0.5688736526338873
539e600b,-6.14125386157289,3.2690393752162095,0.7399879279193252,-1.656858765326426,-1.6868940423884335,-1.2499947907276903,1.31544110198899,-0.1725050273716151,0.04909331749163169,0.001224388513767622
4a66a03b,-6.140980496813017,3.2679333117927025,0.7390338164693384,-1.657997359943167,-1.6871098926668995,-1.2485834273357195,1.3157654204817337,-0.17470387185238892,0.0524086315376835,0.0010200373661936064
685580a,-6.140966950297705,3.267342613877471,0.739420867573065,-1.6567355681770048,-1.6872448444078947,-1.2512996929424849,1.3150739163110716,-0.17246491971806996,0.05396263586882542,-0.001907930854566793
1d685c12,-6.083806905601261,3.14310514549025,0.6918920220833654,-1.4970174926129556,-1.4206443639150763,-0.9712238718487175,0.30209308190549206,0.26188539983034015,-0.22226092393370114,0.6926789751904582
15cc6db7,-6.084134221597171,3.1452428939053925,0.6944903149550626,-1.4989506690985939,-1.4305128679045926,-0.9699764595214866,0.3114801237507132,0.2628143360152417,-0.23276092381143615,0.6928952632190601
511d4f9,-6.084785960791915,3.1418566682826676,0.6915756128175489,-1.494347344187291,-1.422388782373737,-0.971595943178905,0.30185526886474295,0.26114100530254336,-0.22526206968724113,0.6954564017461417
5f7283e0,-6.084876341681403,3.142802491756702,0.6927637163108132,-1.4953015169767703,-1.4234840593599236,-0.9730797963305609,0.30256280589569046,0.2648054784877667,-0.22172905309200866,0.6966457086612614
47dbddee,-6.08573186031176,3.1372156264337625,0.6888047076870989,-1.4865168504952533,-1.4207729668522644,-0.9689108102314168,0.32659198240508136,0.2709114320481083,-0.23180425518797818,0.6973420852417638
7a742101,-6.086236872425038,3.1366942746005573,0.6888318423617785,-1.4876232844757757,-1.4234945131677454,-0.9702141267514393,0.327210346843968,0.27289092414575844,-0.23274215995697703,0.6993974958184108
52be34f3,-5.681728590160553,2.43581274344402,0.4405104320654474,-0.9079881587082772,-0.8278177101756902,-0.6828942250655782,1.378909523093413,-0.3338817978821167,0.09813510958908316,0.21822335781426436
c26f8f9,-5.524395880487973,2.1157510706540523,0.29559080432383306,-0.49859901172394383,-0.25417509374448677,-0.12035155413096017,0.20572505548843167,-0.06824306287348836,-0.019025102248597905,0.24944862367524098
58e41c7f,-6.084742045504729,3.140425936370456,0.6930650092882777,-1.4907825635955734,-1.419473260316851,-0.96546365858619,0.29627229141949907,0.2621824201746261,-0.2124713776864825,0.6920911150389123
78d0302f,-5.661550896169373,2.2937516969373237,0.3209077953164551,-0.4581280440273955,-0.04906987548902765,0.3069104682868545,-1.5494592711509412,0.3778257707802823,-0.1639943060011882,-0.05746849737372248
3a12d996,-5.308407295322707,1.6342104009035654,0.06409988151790894,0.20097742899410576,0.7515262925855485,0.8868405281275425,-1.3994250132576398,-0.05504322304498169,0.048638575985942435,-0.7920132176888138
2b65d183,-4.9067942326825875,0.929247840925314,-0.18687467424880055,0.7869734689739034,1.3449816852616951,1.1730759203577668,-0.321820251015801,-0.6497494151052488,0.3706085407703145,-1.2650998181875208
abc0eb9,-4.9063283616471605,0.9292289375365979,-0.18812910828939985,0.7854463140800609,1.3437136548004625,1.1722373444709466,-0.3210851186060977,-0.6529249711211021,0.36652599029235367,-1.2682986891076407
e02ce7e,-6.083809351264362,3.1428979373266883,0.6984611984036654,-1.4925057254237757,-1.4261508315342724,-0.9691285991651344,0.2962109616906582,0.26027959374918347,-0.22883740066090322,0.6983793595844815
552f7f8f,-5.660618201929006,2.2962236978935566,0.3263039844318434,-0.4598512058555992,-0.0557474467064493,0.3032455277079111,-1.5495206008797824,0.37592294435483925,-0.18036032897560839,-0.0511802528281537
3d2a4205,-5.926029178375867,2.8211941364592024,0.553245475035288,-1.0797877032199292,-0.8511668755215172,-0.40696656226510575,-0.8770431532473847,0.5230523308136832,-0.34108296531302024,0.7251758634517348
29c902d4,-6.08393551595137,3.1401526306008267,0.6916842898227467,-1.497494234559578,-1.4223923233918108,-0.9723542306861277,0.3009893098589641,0.26527319620135564,-0.22858922338932264,0.6976238009222238
a9d64d8,-5.926155343062876,2.8184488297333403,0.5464685664543681,-1.0847762123557303,-0.8474083673790549,-0.4101921937861019,-0.8722648050790789,0.528045933265857,-0.34083478804143985,0.7244203047894776
562a762d,-6.084588115745857,3.143222149164082,0.6925320498622486,-1.4968801966823861,-1.4248868095127116,-0.9721458827391989,0.3007218076052247,0.26376070946364044,-0.22633566057825918,0.70015422021931
2e9435ad,-6.084861371982415,3.144011686451574,0.6930781139142372,-1.4987353697641388,-1.4252961354862477,-0.9738386059427807,0.3013727013507028,0.2639228609820292,-0.22850906019208467,0.702971510684031
2490a7c3,-5.926807942857361,2.8215183482965966,0.54731632649387,-1.084162174478538,-0.8499028534999564,-0.40998384583917324,-0.8725323073328174,0.526533446528143,-0.3385812252303768,0.7269507240865655
56ce0917,-5.925969658322642,2.819828981339618,0.5465653377027214,-1.0820342499372588,-0.847116487230983,-0.4074892750508929,-0.873833002973095,0.5250595963805805,-0.33714319410691507,0.7211023299653144
5c571009,-5.9261744664542455,2.82024461342604,0.548422850590663,-1.0822731459327422,-0.8490003556423237,-0.4071505886161202,-0.8761199360329154,0.5247720978436743,-0.3383035958943586,0.7246606235715942
1ebfcc1b,-5.926067510565558,2.819509284492488,0.5463177802080271,-1.0814469280739911,-0.8468790418186588,-0.4080272052853494,-0.8730058207052374,0.526921873941377,-0.338901344369878,0.7208688385850663
3e20e9ba,-5.926065183240486,2.8189009946583163,0.5461544283841206,-1.0814394165297767,-0.8477302680991355,-0.40953963454010645,-0.8748218449615993,0.5248051908725796,-0.33683323428302664,0.7204232410279208
772c2c8,-5.925887473136041,2.8201412215129307,0.5470945110418791,-1.0841499539322466,-0.8458451057097063,-0.40900540808429,-0.8735094472244023,0.5242800730335073,-0.3404203432450969,0.7223624522083247
2349dc78,-5.925023339792659,2.8205137891119834,0.5486169946846485,-1.0811576462454275,-0.8478724538631691,-0.4075467864365437,-0.8681935117411645,0.525419232394113,-0.3398369206931676,0.7168899971815275
76f43a46,-5.925982121212516,2.818318598539212,0.5465055961202137,-1.0826741020358983,-0.848710686276115,-0.4058932626745219,-0.8740133877625567,0.5244742889435777,-0.335195298426569,0.7213387076046436
59cf98c1,-5.925508021100092,2.8195023246895468,0.5452525071468469,-1.0834106288477934,-0.848025632222599,-0.4099467681971881,-0.8750005488329075,0.5220063553155987,-0.34077396911972174,0.7218202776208051
1717e55a,-5.925827930170156,2.8191917755622056,0.5459798861379144,-1.081698463095223,-0.8476340892229649,-0.4086387215359773,-0.874195094099021,0.5261966516613862,-0.33471092607267827,0.7216920740504301
5e1ba3a5,-5.926053071103364,2.8196899889478333,0.5467819643950598,-1.0833505801934589,-0.8475324459776916,-0.40961340350288233,-0.8707846240676762,0.5220321659786709,-0.3365537250111173,0.7181795818449632
3d53d3a0,-5.9259755846742115,2.817182717970696,0.5443149451217852,-1.0795592423762288,-0.8469084228194778,-0.40478533056625643,-0.8697090361941091,0.5293707132212966,-0.33657920757939214,0.721162209121059
5e2e83bc,-5.927216670847289,2.822333456504663,0.5477091159366669,-1.0854898852014656,-0.8523610397669035,-0.4134351576792485,-0.8511334221917884,0.5153242555363359,-0.3307440939455921,0.7040713005565767
559dcf87,-5.9264614074765,2.8182090607735804,0.545210248691795,-1.0814665543574755,-0.8490397646400686,-0.404036441444965,-0.871081251048993,0.5267721173425596,-0.3360251319517606,0.7234382533294934
74696703,-5.926120847398108,2.8198423309360603,0.5464465786185805,-1.081577825437939,-0.846314753172655,-0.4067583290712326,-0.8732367136617774,0.524251195237512,-0.33686171172743495,0.7214176542888977
61451130,-5.924927278770154,2.817807467857619,0.5492236907922816,-1.0820036250378051,-0.8453856544277432,-0.41206873979181974,-0.8758071612291458,0.5288550217925627,-0.3318400211824628,0.721918137633895
637eb7cb,-5.925969658322642,2.819828981339618,0.5465653377027214,-1.0820342499372588,-0.8471164872309829,-0.40748927505089344,-0.8738330029730949,0.5250595963805809,-0.3371431941069147,0.7211023299653142
74f7b374,-5.9263482004431,2.820376227546498,0.5467018849392432,-1.0822871301904342,-0.8471551385776839,-0.40736090995574376,-0.8738518369557111,0.5245135598264674,-0.3369293733568568,0.7198998914187946
405a7620,-5.926045978075057,2.81908572268139,0.5463698086656135,-1.0819399021362779,-0.8474276752607883,-0.4073372114853968,-0.8733658568543076,0.5258156945614629,-0.33818363559293707,0.7211403541909708
b5cc862,-5.926316381044606,2.820236066677223,0.546626257742431,-1.0835440085291708,-0.8442096343915,-0.4086835231456081,-0.8735008577670412,0.5246803078712535,-0.3423513902083633,0.7305382326544364
6d089a41,-5.925941641272162,2.820802696696556,0.5472413764261961,-1.0811848415919403,-0.8482149961010499,-0.407392492437593,-0.8704897058679948,0.521819311802485,-0.3364585753735984,0.7155773167263884
441290fb,-5.9261524627859785,2.8200486926912074,0.5465823296372945,-1.0819640918707505,-0.8467498613575362,-0.40692264297224273,-0.8753434064519733,0.5249816372309262,-0.3370849757663426,0.7194458088361233
29e07635,-5.925983588061405,2.820271217602426,0.5455969640106287,-1.0807526922416477,-0.8454204922022129,-0.40675504169055465,-0.87347333880169,0.5285979089084093,-0.33085762321769496,0.7178164712258427
4726f507,-5.926185947598458,2.818797117149538,0.5462252713929469,-1.0820546727147782,-0.8467492797138415,-0.40999584131455047,-0.8759293169015218,0.5259385209381627,-0.3395510588070903,0.7203024210804064
29af59bd,-5.926173768616427,2.8202078734023015,0.5467134947066611,-1.0824186960077335,-0.8475307643354323,-0.40775062427367514,-0.8747778826707023,0.5257938970345415,-0.33767710617568036,0.7226096643965882
6236cdea,-5.926157030235971,2.8204464789646697,0.5468844761161038,-1.0823519383150373,-0.8462747530314934,-0.4073463081883652,-0.8750157760820767,0.5261387605326647,-0.3353984229566411,0.7198391111927612
488fd539,-5.9237134838778385,2.8208249529055003,0.55365368487675,-1.0811307382084276,-0.8453461152628234,-0.41005291875431893,-0.87520876704324,0.546834133286301,-0.30349064284051724,0.7074477329982614
307943d3,-5.926324969930017,2.820221275710176,0.546594743593542,-1.0819622459254004,-0.8467288407005402,-0.4070193769195914,-0.8741819707893963,0.5249853918799224,-0.3373960232893011,0.7229288139311526
1c5e141c,-5.926324969930017,2.820221275710176,0.546594743593542,-1.0819622459254004,-0.8467288407005402,-0.4070193769195914,-0.8741819707893963,0.5249853918799224,-0.3373960232893011,0.7229288139311526
726d4186,-5.925765192659351,2.8196805088380326,0.5495954331014581,-1.080353951318384,-0.8481856487031163,-0.4044074203363977,-0.8733535544751702,0.5243362347570274,-0.3387041003115251,0.7187798710267309
1bae1d34,-5.191903030594794,2.26377072134444,0.648939089875333,-1.5928610456216312,-1.4820156432830467,-0.49075398689482064,-1.381209451260245,-0.04561030283296949,0.2588635669631224,0.6835276618134745
2d6cf364,-5.926264341985657,2.819295320615963,0.5466220205076168,-1.0826007868602996,-0.8479801110817745,-0.4062199033520224,-0.8745619438603545,0.5242999862152511,-0.3356201257684619,0.7236382435815106
6a5ebe0a,-5.92751804757384,2.82334228549886,0.5493461660177142,-1.0834444619712613,-0.8508706774876174,-0.4045843707369232,-0.8960370070637493,0.5256125029493321,-0.343776879680601,0.7214808761412774
6bff8672,-5.925969658322642,2.819828981339618,0.5465653377027214,-1.0820342499372588,-0.8471164872309829,-0.40748927505089344,-0.873833002973095,0.5250595963805806,-0.33714319410691496,0.7211023299653141
2ccc67d3,-5.926423180615891,2.819151663319193,0.5460372992917599,-1.0810161474253053,-0.8475669438146177,-0.41060932388246296,-0.8725609414784565,0.5286625017188562,-0.34085472600963845,0.7217733442839965
295b5187,-5.926186317741805,2.81773537284897,0.5458475560339224,-1.0813801354398567,-0.8484060126025753,-0.4085893472181624,-0.8734803110102265,0.5272289260669543,-0.33845316651780394,0.7206506226402577
32c7c7b8,-5.926065117594545,2.8192393968411733,0.5477148115365446,-1.0804073620237937,-0.8477759946074084,-0.4084071144422725,-0.8760572056630951,0.5241763008905671,-0.33772266869740536,0.7194292426756697
2cbc2d69,-5.92642592462282,2.8182954272581324,0.5455006420718452,-1.0796254848538236,-0.8462774168356269,-0.4102559667496253,-0.873031639956776,0.5259047305935827,-0.3378737941225187,0.7213857760601362
711c0391,-5.926740068610258,2.8197069883333996,0.5458128657517148,-1.0795330320191066,-0.8442434498736641,-0.406767231092301,-0.8720382071334636,0.5264454136445228,-0.33790106614331183,0.7234880445852524
2b5c4463,-5.926179203282557,2.820251105595188,0.5467528688769598,-1.0825653865275329,-0.847812094098356,-0.40811140592461714,-0.8735078670087075,0.525425887193761,-0.3374989929317569,0.7225522076515876
51853362,-5.926009117971587,2.820332297479082,0.5476407818502432,-1.082163031597758,-0.8480620625969719,-0.4082990568844586,-0.8724102615574366,0.5255065895839626,-0.33601473080488964,0.720630627061707
64bbce6c,-5.925685263522454,2.8206668157538206,0.545032555266697,-1.0811150900390483,-0.8474736642166522,-0.4063119700252975,-0.8743118213893154,0.5232593359495153,-0.3379344845523108,0.7182969513104083
566e5a1a,-5.925328760203271,2.820666866886017,0.5452577782301951,-1.081575453086092,-0.8476003315793404,-0.40737325505422856,-0.8738732634068275,0.5251604426302618,-0.3372667206840768,0.7207045417475717
6bf1716f,-5.926647168601518,2.8172433450432743,0.5449658458521028,-1.0787574319150532,-0.8466552846615047,-0.41163325842863413,-0.872583812495347,0.530561985579269,-0.34226032836151143,0.7168708003841353
58eaf2b8,-5.925677918765279,2.819718991187826,0.5469068318365223,-1.0836181580348894,-0.8451492997044967,-0.4083821915239976,-0.8738352862726931,0.5239135603058249,-0.3400610937498834,0.720906708127629
520b1b92,-5.926012626127117,2.818827789857444,0.5462778790292125,-1.0819322638058797,-0.8481639491336057,-0.4088495454059946,-0.875283921734993,0.5234129196507237,-0.33521077735731997,0.7211327567273836
46e97f31,-5.92572567245939,2.819254814853239,0.5467012719534655,-1.0833206750744488,-0.8454558059783237,-0.40940880557178644,-0.8743297559954584,0.523784170105137,-0.3399070994253134,0.7205623844752351
4bd2c07b,-5.926319596754598,2.8194307214591827,0.5462539001322835,-1.0814971674023683,-0.8476233635917463,-0.4098832497458356,-0.873284583371572,0.5264679809297858,-0.33893108280269657,0.7213689750595561
3d9f8bbe,-5.926111206591317,2.819406295871951,0.5465101881108912,-1.0822188863898738,-0.8470247891543802,-0.4047634222365231,-0.8723349831443952,0.5256975164187414,-0.3373664919500485,0.7212537737968736
2134539f,-5.924691642451605,2.820159274723821,0.5458008833637664,-1.0848634549801806,-0.8446245731364904,-0.40817461706248054,-0.8740419138179117,0.5236909736130682,-0.33728516984135554,0.7214766201291025
5a76f19b,-5.926110485851152,2.818507939788874,0.5460301482772383,-1.0813445062327403,-0.8479265278116133,-0.40938860337768634,-0.8744557347354982,0.5252792606267529,-0.33697297066548987,0.7208983256668184
5c17f1b7,-5.925807884689316,2.819614595963657,0.5460680082453988,-1.0816731594173348,-0.8473574898465377,-0.4086193850816118,-0.8742535028611694,0.5262009950691546,-0.33461737601018565,0.7213086294152053
4f782942,-5.625459140516752,3.13138317160921,0.6017444635999022,-0.7057759014045678,-1.0127502781298385,-0.38107811517121504,-0.8201173503466478,0.8737945298454063,0.11731753865972859,0.6393035240534981
41625bba,-5.9261198128205175,2.8209072901219145,0.5462569128547193,-1.0816283940773328,-0.8470858893143428,-0.4066700786921914,-0.8744922388286677,0.5252588255824372,-0.3362624817447368,0.7200702159376439
787803a2,-5.925312838868769,2.820756375332981,0.5449272095428733,-1.0813724583410969,-0.8479794032633519,-0.40719318825967543,-0.8739557895425041,0.5248359789770788,-0.33766489656249427,0.7208634773453388
12f6b30d,-5.925969658322642,2.8198289813396173,0.5465653377027211,-1.0820342499372584,-0.8471164872309829,-0.40748927505089405,-0.8738330029730946,0.5250595963805812,-0.33714319410691523,0.7211023299653149
6aeceb46,-5.911891630031743,2.841356470365661,0.49673952334532046,-1.063451080382707,-0.8831964923646282,-0.3906501415406154,-0.8778995565410528,0.46700427244918097,-0.4269225629273507,0.704015238014488
b9fa3b1,-5.926017413751636,2.8193649371271663,0.5463598429496587,-1.081736696849642,-0.8474231750434127,-0.4085142861264268,-0.8743264027200125,0.5249313702492664,-0.33698737237651283,0.7207596499078041
2bf3f75e,-5.9249963990669805,2.8195806744715144,0.5492163982717592,-1.0804658653513395,-0.8486390086064751,-0.40776542606157407,-0.8747189376251627,0.5240594350544924,-0.3345731954627272,0.7220642444187632
4a5d94e1,-5.926089268888426,2.8190049032413635,0.5461668422356315,-1.081376078253755,-0.8473931722868944,-0.4087408611490807,-0.8736469053634615,0.5263648569908536,-0.33822922951651374,0.7208298047625044
7596117e,-5.926173768616427,2.8202078734023024,0.5467134947066614,-1.0824186960077342,-0.8475307643354327,-0.40775062427367514,-0.8747778826707021,0.5257938970345419,-0.33767710617568036,0.7226096643965882
1a32f213,-5.925242905926504,2.8204704686313455,0.5469109771386435,-1.0842674680278903,-0.8460393013535907,-0.4070341361436088,-0.8741045300522862,0.5300550574787971,-0.33497533383898376,0.7202502022679269
72d6f761,-5.926031588189072,2.8201911718503565,0.5469268994935916,-1.0834009188221783,-0.8470044579268458,-0.4089236492745215,-0.8700725848497414,0.522880345378132,-0.33753630530267265,0.7181904618845365
16b34dd0,-5.925783980206847,2.819942225681752,0.546787217480446,-1.082244741031934,-0.8465202822879132,-0.4078350207810045,-0.8737226983763745,0.5263014134530603,-0.33545170920526884,0.7209912660778094
286de1f9,-5.926442828392999,2.820009407791766,0.5463196620214313,-1.0810347131015683,-0.845339630286865,-0.4058951213513874,-0.8721705999743455,0.5235581043328661,-0.3368852877244705,0.7247023405376481
6d701d6e,-5.926475803109106,2.8202679604022096,0.5466130854294098,-1.0822159071498296,-0.8477105973953191,-0.40855084974065037,-0.8748948972776595,0.5283916650921145,-0.3399908853035324,0.7239055334181744
78bd4d99,-5.927116281381309,2.8233370761280208,0.5447783793807364,-1.082348733442246,-0.8503928343226118,-0.40835754838873417,-0.8739884159082659,0.5258521248595989,-0.3442718319685705,0.7271075465344055
30704ddf,-5.92664118459539,2.8196579176932697,0.546259694001661,-1.0814962761728706,-0.8475080461973945,-0.4091041644069996,-0.8747501461458143,0.5278166180532429,-0.3391569349377915,0.724539795612966
1cc74df3,-5.927381416168229,2.8185487636390296,0.5456619420632144,-1.0808261601431577,-0.8486511263146375,-0.41036134150026,-0.8737078230058192,0.5364820761038702,-0.3461086919857609,0.7262617002802851
6298703,-5.925339658140115,2.818971984056813,0.5479173214583032,-1.0865294733130382,-0.8447940155106199,-0.41148780232970167,-0.8726779096355188,0.5254247340506527,-0.33440090968008634,0.7157220592959388
767b115d,-5.662996692292876,2.301561019174506,0.32370103152256247,-0.4763072210586722,-0.05219785980207526,0.3022865173013271,-1.5859030136599124,0.385056037165536,-0.18360008701244,-0.06633644115865175
45be598c,-5.66435838093518,2.3019747838518017,0.32205693973161803,-0.4663728175582734,-0.05678762441066112,0.3098319662291522,-1.5917016164684543,0.37837770876473603,-0.18701705388304762,-0.05116145767025804
1e959ce,-5.664035293935314,2.302018842354404,0.32290167481277066,-0.46660161586821136,-0.05784279652865847,0.3087719763954665,-1.5929853426075946,0.38183126541838064,-0.186305541679022,-0.05755839421759393
34c6b7e8,-5.663993066757589,2.3001731189975367,0.32371852280302976,-0.467586952221235,-0.06095158935276392,0.3128593358584769,-1.5922288615551452,0.38132495896392193,-0.1882466461226579,-0.05624407992703958
42aed70b,-5.664386718904898,2.3018781642047608,0.3206882982485725,-0.46792676458063953,-0.0573240094561645,0.30866850351227626,-1.5929658370639774,0.3812758258900809,-0.18726254498206027,-0.057026848888742314
43483477,-5.664052592569963,2.3018774318384425,0.3211168640481876,-0.46924610632372593,-0.05602277461118307,0.3091355069595829,-1.5917531788849204,0.3844323836735882,-0.18821298941239778,-0.05854041140612354
5c2bc3ef,-5.664212309275873,2.301213854857609,0.3187469748785774,-0.4673020721530385,-0.05887386678983933,0.3043625932641354,-1.5938964442050156,0.3805558867263826,-0.190919141702948,-0.05671721138418957
1acf8c9a,-5.664398965194015,2.300960410050023,0.3205656267393699,-0.46797208605247415,-0.05512912876110315,0.30794313600727535,-1.5930428580910978,0.37877486573273395,-0.18481909704757288,-0.057321606766893074
1356bebc,-5.660645267296921,2.2949292878662075,0.31987189801804267,-0.4627536264240054,-0.04964722504008702,0.3021742220195179,-1.5515261949503194,0.3792409538302554,-0.17642026922846146,-0.060019869347783195
386ecbb1,-5.6644913220538635,2.3020880442438933,0.3210587062605099,-0.46901855777510804,-0.05604553072145532,0.30720303840249624,-1.5966314251343077,0.3829871419349916,-0.18773473925983838,-0.058559832030526615
53c0496,-5.926644308232849,2.8203776418246966,0.5448989363546557,-1.0815914716282,-0.8463722321862316,-0.40753470472948616,-0.8684044377008436,0.5262935103134145,-0.34138373581706544,0.7228563372239655
63452c3,-5.665079386542934,2.3025659596367354,0.3191442539936784,-0.46791990561497304,-0.05735110905253324,0.3077062016265103,-1.5859871155172287,0.382910311959308,-0.19197556951103067,-0.0520397417386663
69d37c0b,-5.925561479912177,2.819071502554786,0.5462692644637779,-1.0812661764842257,-0.84628914683908,-0.40696758039577635,-0.8719493540864685,0.5235971312426525,-0.3360804198474065,0.7181064621802257
4b98db38,-5.925351889803137,2.8183467908178583,0.548581624970081,-1.0847300027595612,-0.8467896273955193,-0.40477011243700894,-0.8722911505859052,0.5260444790574943,-0.3429064421966526,0.7204867057770888
2cd655d2,-5.926896639828234,2.820429282312735,0.5460269980334483,-1.0822889580987292,-0.8438508140004503,-0.4082676492455695,-0.8722213941422077,0.5252948682072811,-0.3426105891040034,0.7386550939079038
441e483b,-5.926266112142359,2.820057865766886,0.5474623292109015,-1.082293453259841,-0.8487724182117453,-0.4092128064200486,-0.8782508087944768,0.5291854185260342,-0.32949207708323025,0.7216520448754169
8ea7f56,-5.926206889242019,2.820754656400226,0.548449064012166,-1.082073512553946,-0.8490139744561042,-0.40856378907102986,-0.8732172851421738,0.525150438180945,-0.33867107456439205,0.7242751318780868
69db61ef,-5.9250468566085805,2.81943683189814,0.5455191626750132,-1.0840580824881,-0.8466812575994406,-0.4078656343194786,-0.8743368480953393,0.5230191368639466,-0.34025197386009515,0.7206007462028535
